digraph Tree {
node [shape=box, style="filled, rounded", color="black", fontname=helvetica] ;
edge [fontname=helvetica] ;
0 [label=<Contract_Month-to-month &le; 0.5<br/>entropy = 0.837<br/>samples = 4930<br/>value = [3614, 1316]<br/>class = C>, fillcolor="#e58139a2"] ;
1 [label=<InternetService_Fiber optic &le; 0.5<br/>entropy = 0.337<br/>samples = 2209<br/>value = [2071, 138]<br/>class = C>, fillcolor="#e58139ee"] ;
0 -> 1 [labeldistance=2.5, labelangle=45, headlabel="True"] ;
2 [label=<Contract_Two year &le; 0.5<br/>entropy = 0.212<br/>samples = 1548<br/>value = [1496, 52]<br/>class = C>, fillcolor="#e58139f6"] ;
1 -> 2 ;
3 [label=<InternetService_No &le; 0.5<br/>entropy = 0.316<br/>samples = 683<br/>value = [644, 39]<br/>class = C>, fillcolor="#e58139f0"] ;
2 -> 3 ;
4 [label=<tenure &le; 0.757<br/>entropy = 0.401<br/>samples = 414<br/>value = [381, 33]<br/>class = C>, fillcolor="#e58139e9"] ;
3 -> 4 ;
5 [label=<tenure &le; 0.743<br/>entropy = 0.454<br/>samples = 304<br/>value = [275, 29]<br/>class = C>, fillcolor="#e58139e4"] ;
4 -> 5 ;
6 [label=<tenure &le; 0.688<br/>entropy = 0.437<br/>samples = 299<br/>value = [272, 27]<br/>class = C>, fillcolor="#e58139e6"] ;
5 -> 6 ;
7 [label=<tenure &le; 0.674<br/>entropy = 0.467<br/>samples = 262<br/>value = [236, 26]<br/>class = C>, fillcolor="#e58139e3"] ;
6 -> 7 ;
8 [label=<tenure &le; 0.646<br/>entropy = 0.45<br/>samples = 255<br/>value = [231, 24]<br/>class = C>, fillcolor="#e58139e5"] ;
7 -> 8 ;
9 [label=<tenure &le; 0.521<br/>entropy = 0.47<br/>samples = 239<br/>value = [215, 24]<br/>class = C>, fillcolor="#e58139e3"] ;
8 -> 9 ;
10 [label=<tenure &le; 0.354<br/>entropy = 0.42<br/>samples = 176<br/>value = [161, 15]<br/>class = C>, fillcolor="#e58139e7"] ;
9 -> 10 ;
11 [label=<tenure &le; 0.056<br/>entropy = 0.532<br/>samples = 91<br/>value = [80, 11]<br/>class = C>, fillcolor="#e58139dc"] ;
10 -> 11 ;
12 [label=<entropy = 0.0<br/>samples = 3<br/>value = [3, 0]<br/>class = C>, fillcolor="#e58139ff"] ;
11 -> 12 ;
13 [label=<tenure &le; 0.076<br/>entropy = 0.544<br/>samples = 88<br/>value = [77, 11]<br/>class = C>, fillcolor="#e58139db"] ;
11 -> 13 ;
14 [label=<entropy = 0.0<br/>samples = 1<br/>value = [0, 1]<br/>class = h>, fillcolor="#399de5ff"] ;
13 -> 14 ;
15 [label=<tenure &le; 0.16<br/>entropy = 0.515<br/>samples = 87<br/>value = [77, 10]<br/>class = C>, fillcolor="#e58139de"] ;
13 -> 15 ;
16 [label=<PaymentMethod_Electronic check &le; 0.5<br/>entropy = 0.286<br/>samples = 20<br/>value = [19, 1]<br/>class = C>, fillcolor="#e58139f2"] ;
15 -> 16 ;
17 [label=<entropy = 0.0<br/>samples = 16<br/>value = [16, 0]<br/>class = C>, fillcolor="#e58139ff"] ;
16 -> 17 ;
18 [label=<tenure &le; 0.118<br/>entropy = 0.811<br/>samples = 4<br/>value = [3, 1]<br/>class = C>, fillcolor="#e58139aa"] ;
16 -> 18 ;
19 [label=<entropy = 1.0<br/>samples = 2<br/>value = [1, 1]<br/>class = C>, fillcolor="#e5813900"] ;
18 -> 19 ;
20 [label=<entropy = 0.0<br/>samples = 2<br/>value = [2, 0]<br/>class = C>, fillcolor="#e58139ff"] ;
18 -> 20 ;
21 [label=<tenure &le; 0.174<br/>entropy = 0.569<br/>samples = 67<br/>value = [58, 9]<br/>class = C>, fillcolor="#e58139d7"] ;
15 -> 21 ;
22 [label=<PaymentMethod_Electronic check &le; 0.5<br/>entropy = 0.985<br/>samples = 7<br/>value = [4, 3]<br/>class = C>, fillcolor="#e5813940"] ;
21 -> 22 ;
23 [label=<entropy = 1.0<br/>samples = 4<br/>value = [2, 2]<br/>class = C>, fillcolor="#e5813900"] ;
22 -> 23 ;
24 [label=<entropy = 0.918<br/>samples = 3<br/>value = [2, 1]<br/>class = C>, fillcolor="#e581397f"] ;
22 -> 24 ;
25 [label=<tenure &le; 0.222<br/>entropy = 0.469<br/>samples = 60<br/>value = [54, 6]<br/>class = C>, fillcolor="#e58139e3"] ;
21 -> 25 ;
26 [label=<entropy = 0.0<br/>samples = 9<br/>value = [9, 0]<br/>class = C>, fillcolor="#e58139ff"] ;
25 -> 26 ;
27 [label=<tenure &le; 0.34<br/>entropy = 0.523<br/>samples = 51<br/>value = [45, 6]<br/>class = C>, fillcolor="#e58139dd"] ;
25 -> 27 ;
28 [label=<tenure &le; 0.326<br/>entropy = 0.489<br/>samples = 47<br/>value = [42, 5]<br/>class = C>, fillcolor="#e58139e1"] ;
27 -> 28 ;
29 [label=<tenure &le; 0.257<br/>entropy = 0.552<br/>samples = 39<br/>value = [34, 5]<br/>class = C>, fillcolor="#e58139da"] ;
28 -> 29 ;
30 [label=<PaymentMethod_Electronic check &le; 0.5<br/>entropy = 0.619<br/>samples = 13<br/>value = [11, 2]<br/>class = C>, fillcolor="#e58139d1"] ;
29 -> 30 ;
31 [label=<tenure &le; 0.243<br/>entropy = 0.684<br/>samples = 11<br/>value = [9, 2]<br/>class = C>, fillcolor="#e58139c6"] ;
30 -> 31 ;
32 [label=<entropy = 0.592<br/>samples = 7<br/>value = [6, 1]<br/>class = C>, fillcolor="#e58139d4"] ;
31 -> 32 ;
33 [label=<entropy = 0.811<br/>samples = 4<br/>value = [3, 1]<br/>class = C>, fillcolor="#e58139aa"] ;
31 -> 33 ;
34 [label=<entropy = 0.0<br/>samples = 2<br/>value = [2, 0]<br/>class = C>, fillcolor="#e58139ff"] ;
30 -> 34 ;
35 [label=<tenure &le; 0.285<br/>entropy = 0.516<br/>samples = 26<br/>value = [23, 3]<br/>class = C>, fillcolor="#e58139de"] ;
29 -> 35 ;
36 [label=<entropy = 0.0<br/>samples = 5<br/>value = [5, 0]<br/>class = C>, fillcolor="#e58139ff"] ;
35 -> 36 ;
37 [label=<PaymentMethod_Electronic check &le; 0.5<br/>entropy = 0.592<br/>samples = 21<br/>value = [18, 3]<br/>class = C>, fillcolor="#e58139d4"] ;
35 -> 37 ;
38 [label=<tenure &le; 0.299<br/>entropy = 0.523<br/>samples = 17<br/>value = [15, 2]<br/>class = C>, fillcolor="#e58139dd"] ;
37 -> 38 ;
39 [label=<entropy = 0.0<br/>samples = 4<br/>value = [4, 0]<br/>class = C>, fillcolor="#e58139ff"] ;
38 -> 39 ;
40 [label=<tenure &le; 0.312<br/>entropy = 0.619<br/>samples = 13<br/>value = [11, 2]<br/>class = C>, fillcolor="#e58139d1"] ;
38 -> 40 ;
41 [label=<entropy = 0.722<br/>samples = 5<br/>value = [4, 1]<br/>class = C>, fillcolor="#e58139bf"] ;
40 -> 41 ;
42 [label=<entropy = 0.544<br/>samples = 8<br/>value = [7, 1]<br/>class = C>, fillcolor="#e58139db"] ;
40 -> 42 ;
43 [label=<tenure &le; 0.306<br/>entropy = 0.811<br/>samples = 4<br/>value = [3, 1]<br/>class = C>, fillcolor="#e58139aa"] ;
37 -> 43 ;
44 [label=<entropy = 1.0<br/>samples = 2<br/>value = [1, 1]<br/>class = C>, fillcolor="#e5813900"] ;
43 -> 44 ;
45 [label=<entropy = 0.0<br/>samples = 2<br/>value = [2, 0]<br/>class = C>, fillcolor="#e58139ff"] ;
43 -> 45 ;
46 [label=<entropy = 0.0<br/>samples = 8<br/>value = [8, 0]<br/>class = C>, fillcolor="#e58139ff"] ;
28 -> 46 ;
47 [label=<PaymentMethod_Electronic check &le; 0.5<br/>entropy = 0.811<br/>samples = 4<br/>value = [3, 1]<br/>class = C>, fillcolor="#e58139aa"] ;
27 -> 47 ;
48 [label=<entropy = 0.918<br/>samples = 3<br/>value = [2, 1]<br/>class = C>, fillcolor="#e581397f"] ;
47 -> 48 ;
49 [label=<entropy = 0.0<br/>samples = 1<br/>value = [1, 0]<br/>class = C>, fillcolor="#e58139ff"] ;
47 -> 49 ;
50 [label=<tenure &le; 0.41<br/>entropy = 0.274<br/>samples = 85<br/>value = [81, 4]<br/>class = C>, fillcolor="#e58139f2"] ;
10 -> 50 ;
51 [label=<entropy = 0.0<br/>samples = 31<br/>value = [31, 0]<br/>class = C>, fillcolor="#e58139ff"] ;
50 -> 51 ;
52 [label=<PaymentMethod_Electronic check &le; 0.5<br/>entropy = 0.381<br/>samples = 54<br/>value = [50, 4]<br/>class = C>, fillcolor="#e58139eb"] ;
50 -> 52 ;
53 [label=<tenure &le; 0.424<br/>entropy = 0.454<br/>samples = 42<br/>value = [38, 4]<br/>class = C>, fillcolor="#e58139e4"] ;
52 -> 53 ;
54 [label=<entropy = 0.918<br/>samples = 3<br/>value = [2, 1]<br/>class = C>, fillcolor="#e581397f"] ;
53 -> 54 ;
55 [label=<tenure &le; 0.465<br/>entropy = 0.391<br/>samples = 39<br/>value = [36, 3]<br/>class = C>, fillcolor="#e58139ea"] ;
53 -> 55 ;
56 [label=<entropy = 0.0<br/>samples = 15<br/>value = [15, 0]<br/>class = C>, fillcolor="#e58139ff"] ;
55 -> 56 ;
57 [label=<tenure &le; 0.507<br/>entropy = 0.544<br/>samples = 24<br/>value = [21, 3]<br/>class = C>, fillcolor="#e58139db"] ;
55 -> 57 ;
58 [label=<tenure &le; 0.493<br/>entropy = 0.629<br/>samples = 19<br/>value = [16, 3]<br/>class = C>, fillcolor="#e58139cf"] ;
57 -> 58 ;
59 [label=<tenure &le; 0.479<br/>entropy = 0.684<br/>samples = 11<br/>value = [9, 2]<br/>class = C>, fillcolor="#e58139c6"] ;
58 -> 59 ;
60 [label=<entropy = 0.65<br/>samples = 6<br/>value = [5, 1]<br/>class = C>, fillcolor="#e58139cc"] ;
59 -> 60 ;
61 [label=<entropy = 0.722<br/>samples = 5<br/>value = [4, 1]<br/>class = C>, fillcolor="#e58139bf"] ;
59 -> 61 ;
62 [label=<entropy = 0.544<br/>samples = 8<br/>value = [7, 1]<br/>class = C>, fillcolor="#e58139db"] ;
58 -> 62 ;
63 [label=<entropy = 0.0<br/>samples = 5<br/>value = [5, 0]<br/>class = C>, fillcolor="#e58139ff"] ;
57 -> 63 ;
64 [label=<entropy = 0.0<br/>samples = 12<br/>value = [12, 0]<br/>class = C>, fillcolor="#e58139ff"] ;
52 -> 64 ;
65 [label=<tenure &le; 0.535<br/>entropy = 0.592<br/>samples = 63<br/>value = [54, 9]<br/>class = C>, fillcolor="#e58139d4"] ;
9 -> 65 ;
66 [label=<PaymentMethod_Electronic check &le; 0.5<br/>entropy = 0.918<br/>samples = 3<br/>value = [2, 1]<br/>class = C>, fillcolor="#e581397f"] ;
65 -> 66 ;
67 [label=<entropy = 1.0<br/>samples = 2<br/>value = [1, 1]<br/>class = C>, fillcolor="#e5813900"] ;
66 -> 67 ;
68 [label=<entropy = 0.0<br/>samples = 1<br/>value = [1, 0]<br/>class = C>, fillcolor="#e58139ff"] ;
66 -> 68 ;
69 [label=<tenure &le; 0.618<br/>entropy = 0.567<br/>samples = 60<br/>value = [52, 8]<br/>class = C>, fillcolor="#e58139d8"] ;
65 -> 69 ;
70 [label=<tenure &le; 0.59<br/>entropy = 0.536<br/>samples = 49<br/>value = [43, 6]<br/>class = C>, fillcolor="#e58139db"] ;
69 -> 70 ;
71 [label=<PaymentMethod_Electronic check &le; 0.5<br/>entropy = 0.602<br/>samples = 34<br/>value = [29, 5]<br/>class = C>, fillcolor="#e58139d3"] ;
70 -> 71 ;
72 [label=<tenure &le; 0.576<br/>entropy = 0.516<br/>samples = 26<br/>value = [23, 3]<br/>class = C>, fillcolor="#e58139de"] ;
71 -> 72 ;
73 [label=<tenure &le; 0.549<br/>entropy = 0.439<br/>samples = 22<br/>value = [20, 2]<br/>class = C>, fillcolor="#e58139e6"] ;
72 -> 73 ;
74 [label=<entropy = 0.592<br/>samples = 7<br/>value = [6, 1]<br/>class = C>, fillcolor="#e58139d4"] ;
73 -> 74 ;
75 [label=<tenure &le; 0.562<br/>entropy = 0.353<br/>samples = 15<br/>value = [14, 1]<br/>class = C>, fillcolor="#e58139ed"] ;
73 -> 75 ;
76 [label=<entropy = 0.0<br/>samples = 6<br/>value = [6, 0]<br/>class = C>, fillcolor="#e58139ff"] ;
75 -> 76 ;
77 [label=<entropy = 0.503<br/>samples = 9<br/>value = [8, 1]<br/>class = C>, fillcolor="#e58139df"] ;
75 -> 77 ;
78 [label=<entropy = 0.811<br/>samples = 4<br/>value = [3, 1]<br/>class = C>, fillcolor="#e58139aa"] ;
72 -> 78 ;
79 [label=<tenure &le; 0.576<br/>entropy = 0.811<br/>samples = 8<br/>value = [6, 2]<br/>class = C>, fillcolor="#e58139aa"] ;
71 -> 79 ;
80 [label=<tenure &le; 0.549<br/>entropy = 0.918<br/>samples = 6<br/>value = [4, 2]<br/>class = C>, fillcolor="#e581397f"] ;
79 -> 80 ;
81 [label=<entropy = 0.0<br/>samples = 1<br/>value = [1, 0]<br/>class = C>, fillcolor="#e58139ff"] ;
80 -> 81 ;
82 [label=<tenure &le; 0.562<br/>entropy = 0.971<br/>samples = 5<br/>value = [3, 2]<br/>class = C>, fillcolor="#e5813955"] ;
80 -> 82 ;
83 [label=<entropy = 1.0<br/>samples = 2<br/>value = [1, 1]<br/>class = C>, fillcolor="#e5813900"] ;
82 -> 83 ;
84 [label=<entropy = 0.918<br/>samples = 3<br/>value = [2, 1]<br/>class = C>, fillcolor="#e581397f"] ;
82 -> 84 ;
85 [label=<entropy = 0.0<br/>samples = 2<br/>value = [2, 0]<br/>class = C>, fillcolor="#e58139ff"] ;
79 -> 85 ;
86 [label=<PaymentMethod_Electronic check &le; 0.5<br/>entropy = 0.353<br/>samples = 15<br/>value = [14, 1]<br/>class = C>, fillcolor="#e58139ed"] ;
70 -> 86 ;
87 [label=<tenure &le; 0.604<br/>entropy = 0.503<br/>samples = 9<br/>value = [8, 1]<br/>class = C>, fillcolor="#e58139df"] ;
86 -> 87 ;
88 [label=<entropy = 0.0<br/>samples = 4<br/>value = [4, 0]<br/>class = C>, fillcolor="#e58139ff"] ;
87 -> 88 ;
89 [label=<entropy = 0.722<br/>samples = 5<br/>value = [4, 1]<br/>class = C>, fillcolor="#e58139bf"] ;
87 -> 89 ;
90 [label=<entropy = 0.0<br/>samples = 6<br/>value = [6, 0]<br/>class = C>, fillcolor="#e58139ff"] ;
86 -> 90 ;
91 [label=<PaymentMethod_Electronic check &le; 0.5<br/>entropy = 0.684<br/>samples = 11<br/>value = [9, 2]<br/>class = C>, fillcolor="#e58139c6"] ;
69 -> 91 ;
92 [label=<tenure &le; 0.632<br/>entropy = 0.722<br/>samples = 10<br/>value = [8, 2]<br/>class = C>, fillcolor="#e58139bf"] ;
91 -> 92 ;
93 [label=<entropy = 0.811<br/>samples = 4<br/>value = [3, 1]<br/>class = C>, fillcolor="#e58139aa"] ;
92 -> 93 ;
94 [label=<entropy = 0.65<br/>samples = 6<br/>value = [5, 1]<br/>class = C>, fillcolor="#e58139cc"] ;
92 -> 94 ;
95 [label=<entropy = 0.0<br/>samples = 1<br/>value = [1, 0]<br/>class = C>, fillcolor="#e58139ff"] ;
91 -> 95 ;
96 [label=<entropy = 0.0<br/>samples = 16<br/>value = [16, 0]<br/>class = C>, fillcolor="#e58139ff"] ;
8 -> 96 ;
97 [label=<PaymentMethod_Electronic check &le; 0.5<br/>entropy = 0.863<br/>samples = 7<br/>value = [5, 2]<br/>class = C>, fillcolor="#e5813999"] ;
7 -> 97 ;
98 [label=<entropy = 0.811<br/>samples = 4<br/>value = [3, 1]<br/>class = C>, fillcolor="#e58139aa"] ;
97 -> 98 ;
99 [label=<entropy = 0.918<br/>samples = 3<br/>value = [2, 1]<br/>class = C>, fillcolor="#e581397f"] ;
97 -> 99 ;
100 [label=<PaymentMethod_Electronic check &le; 0.5<br/>entropy = 0.179<br/>samples = 37<br/>value = [36, 1]<br/>class = C>, fillcolor="#e58139f8"] ;
6 -> 100 ;
101 [label=<entropy = 0.0<br/>samples = 33<br/>value = [33, 0]<br/>class = C>, fillcolor="#e58139ff"] ;
100 -> 101 ;
102 [label=<tenure &le; 0.729<br/>entropy = 0.811<br/>samples = 4<br/>value = [3, 1]<br/>class = C>, fillcolor="#e58139aa"] ;
100 -> 102 ;
103 [label=<entropy = 0.0<br/>samples = 2<br/>value = [2, 0]<br/>class = C>, fillcolor="#e58139ff"] ;
102 -> 103 ;
104 [label=<entropy = 1.0<br/>samples = 2<br/>value = [1, 1]<br/>class = C>, fillcolor="#e5813900"] ;
102 -> 104 ;
105 [label=<PaymentMethod_Electronic check &le; 0.5<br/>entropy = 0.971<br/>samples = 5<br/>value = [3, 2]<br/>class = C>, fillcolor="#e5813955"] ;
5 -> 105 ;
106 [label=<entropy = 0.918<br/>samples = 3<br/>value = [1, 2]<br/>class = h>, fillcolor="#399de57f"] ;
105 -> 106 ;
107 [label=<entropy = 0.0<br/>samples = 2<br/>value = [2, 0]<br/>class = C>, fillcolor="#e58139ff"] ;
105 -> 107 ;
108 [label=<tenure &le; 0.938<br/>entropy = 0.225<br/>samples = 110<br/>value = [106, 4]<br/>class = C>, fillcolor="#e58139f5"] ;
4 -> 108 ;
109 [label=<tenure &le; 0.799<br/>entropy = 0.096<br/>samples = 81<br/>value = [80, 1]<br/>class = C>, fillcolor="#e58139fc"] ;
108 -> 109 ;
110 [label=<tenure &le; 0.785<br/>entropy = 0.267<br/>samples = 22<br/>value = [21, 1]<br/>class = C>, fillcolor="#e58139f3"] ;
109 -> 110 ;
111 [label=<entropy = 0.0<br/>samples = 14<br/>value = [14, 0]<br/>class = C>, fillcolor="#e58139ff"] ;
110 -> 111 ;
112 [label=<PaymentMethod_Electronic check &le; 0.5<br/>entropy = 0.544<br/>samples = 8<br/>value = [7, 1]<br/>class = C>, fillcolor="#e58139db"] ;
110 -> 112 ;
113 [label=<entropy = 0.65<br/>samples = 6<br/>value = [5, 1]<br/>class = C>, fillcolor="#e58139cc"] ;
112 -> 113 ;
114 [label=<entropy = 0.0<br/>samples = 2<br/>value = [2, 0]<br/>class = C>, fillcolor="#e58139ff"] ;
112 -> 114 ;
115 [label=<entropy = 0.0<br/>samples = 59<br/>value = [59, 0]<br/>class = C>, fillcolor="#e58139ff"] ;
109 -> 115 ;
116 [label=<tenure &le; 0.979<br/>entropy = 0.48<br/>samples = 29<br/>value = [26, 3]<br/>class = C>, fillcolor="#e58139e2"] ;
108 -> 116 ;
117 [label=<PaymentMethod_Electronic check &le; 0.5<br/>entropy = 0.544<br/>samples = 24<br/>value = [21, 3]<br/>class = C>, fillcolor="#e58139db"] ;
116 -> 117 ;
118 [label=<tenure &le; 0.965<br/>entropy = 0.469<br/>samples = 20<br/>value = [18, 2]<br/>class = C>, fillcolor="#e58139e3"] ;
117 -> 118 ;
119 [label=<tenure &le; 0.951<br/>entropy = 0.619<br/>samples = 13<br/>value = [11, 2]<br/>class = C>, fillcolor="#e58139d1"] ;
118 -> 119 ;
120 [label=<entropy = 0.544<br/>samples = 8<br/>value = [7, 1]<br/>class = C>, fillcolor="#e58139db"] ;
119 -> 120 ;
121 [label=<entropy = 0.722<br/>samples = 5<br/>value = [4, 1]<br/>class = C>, fillcolor="#e58139bf"] ;
119 -> 121 ;
122 [label=<entropy = 0.0<br/>samples = 7<br/>value = [7, 0]<br/>class = C>, fillcolor="#e58139ff"] ;
118 -> 122 ;
123 [label=<tenure &le; 0.958<br/>entropy = 0.811<br/>samples = 4<br/>value = [3, 1]<br/>class = C>, fillcolor="#e58139aa"] ;
117 -> 123 ;
124 [label=<entropy = 0.0<br/>samples = 2<br/>value = [2, 0]<br/>class = C>, fillcolor="#e58139ff"] ;
123 -> 124 ;
125 [label=<entropy = 1.0<br/>samples = 2<br/>value = [1, 1]<br/>class = C>, fillcolor="#e5813900"] ;
123 -> 125 ;
126 [label=<entropy = 0.0<br/>samples = 5<br/>value = [5, 0]<br/>class = C>, fillcolor="#e58139ff"] ;
116 -> 126 ;
127 [label=<tenure &le; 0.035<br/>entropy = 0.154<br/>samples = 269<br/>value = [263, 6]<br/>class = C>, fillcolor="#e58139f9"] ;
3 -> 127 ;
128 [label=<tenure &le; 0.021<br/>entropy = 0.592<br/>samples = 7<br/>value = [6, 1]<br/>class = C>, fillcolor="#e58139d4"] ;
127 -> 128 ;
129 [label=<entropy = 0.0<br/>samples = 3<br/>value = [3, 0]<br/>class = C>, fillcolor="#e58139ff"] ;
128 -> 129 ;
130 [label=<entropy = 0.811<br/>samples = 4<br/>value = [3, 1]<br/>class = C>, fillcolor="#e58139aa"] ;
128 -> 130 ;
131 [label=<tenure &le; 0.75<br/>entropy = 0.136<br/>samples = 262<br/>value = [257, 5]<br/>class = C>, fillcolor="#e58139fa"] ;
127 -> 131 ;
132 [label=<tenure &le; 0.729<br/>entropy = 0.151<br/>samples = 231<br/>value = [226, 5]<br/>class = C>, fillcolor="#e58139f9"] ;
131 -> 132 ;
133 [label=<tenure &le; 0.632<br/>entropy = 0.128<br/>samples = 226<br/>value = [222, 4]<br/>class = C>, fillcolor="#e58139fa"] ;
132 -> 133 ;
134 [label=<tenure &le; 0.618<br/>entropy = 0.144<br/>samples = 195<br/>value = [191, 4]<br/>class = C>, fillcolor="#e58139fa"] ;
133 -> 134 ;
135 [label=<tenure &le; 0.354<br/>entropy = 0.117<br/>samples = 191<br/>value = [188, 3]<br/>class = C>, fillcolor="#e58139fb"] ;
134 -> 135 ;
136 [label=<tenure &le; 0.34<br/>entropy = 0.165<br/>samples = 123<br/>value = [120, 3]<br/>class = C>, fillcolor="#e58139f9"] ;
135 -> 136 ;
137 [label=<tenure &le; 0.257<br/>entropy = 0.128<br/>samples = 113<br/>value = [111, 2]<br/>class = C>, fillcolor="#e58139fa"] ;
136 -> 137 ;
138 [label=<tenure &le; 0.243<br/>entropy = 0.174<br/>samples = 77<br/>value = [75, 2]<br/>class = C>, fillcolor="#e58139f8"] ;
137 -> 138 ;
139 [label=<tenure &le; 0.118<br/>entropy = 0.107<br/>samples = 71<br/>value = [70, 1]<br/>class = C>, fillcolor="#e58139fb"] ;
138 -> 139 ;
140 [label=<tenure &le; 0.104<br/>entropy = 0.229<br/>samples = 27<br/>value = [26, 1]<br/>class = C>, fillcolor="#e58139f5"] ;
139 -> 140 ;
141 [label=<entropy = 0.0<br/>samples = 21<br/>value = [21, 0]<br/>class = C>, fillcolor="#e58139ff"] ;
140 -> 141 ;
142 [label=<PaymentMethod_Electronic check &le; 0.5<br/>entropy = 0.65<br/>samples = 6<br/>value = [5, 1]<br/>class = C>, fillcolor="#e58139cc"] ;
140 -> 142 ;
143 [label=<entropy = 0.722<br/>samples = 5<br/>value = [4, 1]<br/>class = C>, fillcolor="#e58139bf"] ;
142 -> 143 ;
144 [label=<entropy = 0.0<br/>samples = 1<br/>value = [1, 0]<br/>class = C>, fillcolor="#e58139ff"] ;
142 -> 144 ;
145 [label=<entropy = 0.0<br/>samples = 44<br/>value = [44, 0]<br/>class = C>, fillcolor="#e58139ff"] ;
139 -> 145 ;
146 [label=<entropy = 0.65<br/>samples = 6<br/>value = [5, 1]<br/>class = C>, fillcolor="#e58139cc"] ;
138 -> 146 ;
147 [label=<entropy = 0.0<br/>samples = 36<br/>value = [36, 0]<br/>class = C>, fillcolor="#e58139ff"] ;
137 -> 147 ;
148 [label=<PaymentMethod_Electronic check &le; 0.5<br/>entropy = 0.469<br/>samples = 10<br/>value = [9, 1]<br/>class = C>, fillcolor="#e58139e3"] ;
136 -> 148 ;
149 [label=<entropy = 0.544<br/>samples = 8<br/>value = [7, 1]<br/>class = C>, fillcolor="#e58139db"] ;
148 -> 149 ;
150 [label=<entropy = 0.0<br/>samples = 2<br/>value = [2, 0]<br/>class = C>, fillcolor="#e58139ff"] ;
148 -> 150 ;
151 [label=<entropy = 0.0<br/>samples = 68<br/>value = [68, 0]<br/>class = C>, fillcolor="#e58139ff"] ;
135 -> 151 ;
152 [label=<PaymentMethod_Electronic check &le; 0.5<br/>entropy = 0.811<br/>samples = 4<br/>value = [3, 1]<br/>class = C>, fillcolor="#e58139aa"] ;
134 -> 152 ;
153 [label=<entropy = 0.0<br/>samples = 3<br/>value = [3, 0]<br/>class = C>, fillcolor="#e58139ff"] ;
152 -> 153 ;
154 [label=<entropy = 0.0<br/>samples = 1<br/>value = [0, 1]<br/>class = h>, fillcolor="#399de5ff"] ;
152 -> 154 ;
155 [label=<entropy = 0.0<br/>samples = 31<br/>value = [31, 0]<br/>class = C>, fillcolor="#e58139ff"] ;
133 -> 155 ;
156 [label=<entropy = 0.722<br/>samples = 5<br/>value = [4, 1]<br/>class = C>, fillcolor="#e58139bf"] ;
132 -> 156 ;
157 [label=<entropy = 0.0<br/>samples = 31<br/>value = [31, 0]<br/>class = C>, fillcolor="#e58139ff"] ;
131 -> 157 ;
158 [label=<PaymentMethod_Electronic check &le; 0.5<br/>entropy = 0.113<br/>samples = 865<br/>value = [852, 13]<br/>class = C>, fillcolor="#e58139fb"] ;
2 -> 158 ;
159 [label=<tenure &le; 0.979<br/>entropy = 0.088<br/>samples = 815<br/>value = [806, 9]<br/>class = C>, fillcolor="#e58139fc"] ;
158 -> 159 ;
160 [label=<tenure &le; 0.757<br/>entropy = 0.108<br/>samples = 627<br/>value = [618, 9]<br/>class = C>, fillcolor="#e58139fb"] ;
159 -> 160 ;
161 [label=<tenure &le; 0.465<br/>entropy = 0.054<br/>samples = 322<br/>value = [320, 2]<br/>class = C>, fillcolor="#e58139fd"] ;
160 -> 161 ;
162 [label=<tenure &le; 0.34<br/>entropy = 0.108<br/>samples = 140<br/>value = [138, 2]<br/>class = C>, fillcolor="#e58139fb"] ;
161 -> 162 ;
163 [label=<entropy = 0.0<br/>samples = 103<br/>value = [103, 0]<br/>class = C>, fillcolor="#e58139ff"] ;
162 -> 163 ;
164 [label=<tenure &le; 0.354<br/>entropy = 0.303<br/>samples = 37<br/>value = [35, 2]<br/>class = C>, fillcolor="#e58139f0"] ;
162 -> 164 ;
165 [label=<entropy = 0.918<br/>samples = 3<br/>value = [2, 1]<br/>class = C>, fillcolor="#e581397f"] ;
164 -> 165 ;
166 [label=<tenure &le; 0.451<br/>entropy = 0.191<br/>samples = 34<br/>value = [33, 1]<br/>class = C>, fillcolor="#e58139f7"] ;
164 -> 166 ;
167 [label=<entropy = 0.0<br/>samples = 29<br/>value = [29, 0]<br/>class = C>, fillcolor="#e58139ff"] ;
166 -> 167 ;
168 [label=<InternetService_No &le; 0.5<br/>entropy = 0.722<br/>samples = 5<br/>value = [4, 1]<br/>class = C>, fillcolor="#e58139bf"] ;
166 -> 168 ;
169 [label=<entropy = 0.0<br/>samples = 2<br/>value = [2, 0]<br/>class = C>, fillcolor="#e58139ff"] ;
168 -> 169 ;
170 [label=<entropy = 0.918<br/>samples = 3<br/>value = [2, 1]<br/>class = C>, fillcolor="#e581397f"] ;
168 -> 170 ;
171 [label=<entropy = 0.0<br/>samples = 182<br/>value = [182, 0]<br/>class = C>, fillcolor="#e58139ff"] ;
161 -> 171 ;
172 [label=<tenure &le; 0.785<br/>entropy = 0.158<br/>samples = 305<br/>value = [298, 7]<br/>class = C>, fillcolor="#e58139f9"] ;
160 -> 172 ;
173 [label=<tenure &le; 0.771<br/>entropy = 0.439<br/>samples = 22<br/>value = [20, 2]<br/>class = C>, fillcolor="#e58139e6"] ;
172 -> 173 ;
174 [label=<InternetService_No &le; 0.5<br/>entropy = 0.503<br/>samples = 9<br/>value = [8, 1]<br/>class = C>, fillcolor="#e58139df"] ;
173 -> 174 ;
175 [label=<entropy = 0.811<br/>samples = 4<br/>value = [3, 1]<br/>class = C>, fillcolor="#e58139aa"] ;
174 -> 175 ;
176 [label=<entropy = 0.0<br/>samples = 5<br/>value = [5, 0]<br/>class = C>, fillcolor="#e58139ff"] ;
174 -> 176 ;
177 [label=<InternetService_No &le; 0.5<br/>entropy = 0.391<br/>samples = 13<br/>value = [12, 1]<br/>class = C>, fillcolor="#e58139ea"] ;
173 -> 177 ;
178 [label=<entropy = 0.0<br/>samples = 7<br/>value = [7, 0]<br/>class = C>, fillcolor="#e58139ff"] ;
177 -> 178 ;
179 [label=<entropy = 0.65<br/>samples = 6<br/>value = [5, 1]<br/>class = C>, fillcolor="#e58139cc"] ;
177 -> 179 ;
180 [label=<tenure &le; 0.896<br/>entropy = 0.128<br/>samples = 283<br/>value = [278, 5]<br/>class = C>, fillcolor="#e58139fa"] ;
172 -> 180 ;
181 [label=<tenure &le; 0.826<br/>entropy = 0.068<br/>samples = 123<br/>value = [122, 1]<br/>class = C>, fillcolor="#e58139fd"] ;
180 -> 181 ;
182 [label=<tenure &le; 0.812<br/>entropy = 0.169<br/>samples = 40<br/>value = [39, 1]<br/>class = C>, fillcolor="#e58139f8"] ;
181 -> 182 ;
183 [label=<entropy = 0.0<br/>samples = 29<br/>value = [29, 0]<br/>class = C>, fillcolor="#e58139ff"] ;
182 -> 183 ;
184 [label=<InternetService_No &le; 0.5<br/>entropy = 0.439<br/>samples = 11<br/>value = [10, 1]<br/>class = C>, fillcolor="#e58139e6"] ;
182 -> 184 ;
185 [label=<entropy = 0.0<br/>samples = 4<br/>value = [4, 0]<br/>class = C>, fillcolor="#e58139ff"] ;
184 -> 185 ;
186 [label=<entropy = 0.592<br/>samples = 7<br/>value = [6, 1]<br/>class = C>, fillcolor="#e58139d4"] ;
184 -> 186 ;
187 [label=<entropy = 0.0<br/>samples = 83<br/>value = [83, 0]<br/>class = C>, fillcolor="#e58139ff"] ;
181 -> 187 ;
188 [label=<tenure &le; 0.924<br/>entropy = 0.169<br/>samples = 160<br/>value = [156, 4]<br/>class = C>, fillcolor="#e58139f8"] ;
180 -> 188 ;
189 [label=<InternetService_No &le; 0.5<br/>entropy = 0.342<br/>samples = 47<br/>value = [44, 3]<br/>class = C>, fillcolor="#e58139ee"] ;
188 -> 189 ;
190 [label=<tenure &le; 0.91<br/>entropy = 0.439<br/>samples = 33<br/>value = [30, 3]<br/>class = C>, fillcolor="#e58139e6"] ;
189 -> 190 ;
191 [label=<entropy = 0.391<br/>samples = 13<br/>value = [12, 1]<br/>class = C>, fillcolor="#e58139ea"] ;
190 -> 191 ;
192 [label=<entropy = 0.469<br/>samples = 20<br/>value = [18, 2]<br/>class = C>, fillcolor="#e58139e3"] ;
190 -> 192 ;
193 [label=<entropy = 0.0<br/>samples = 14<br/>value = [14, 0]<br/>class = C>, fillcolor="#e58139ff"] ;
189 -> 193 ;
194 [label=<tenure &le; 0.965<br/>entropy = 0.073<br/>samples = 113<br/>value = [112, 1]<br/>class = C>, fillcolor="#e58139fd"] ;
188 -> 194 ;
195 [label=<entropy = 0.0<br/>samples = 81<br/>value = [81, 0]<br/>class = C>, fillcolor="#e58139ff"] ;
194 -> 195 ;
196 [label=<InternetService_No &le; 0.5<br/>entropy = 0.201<br/>samples = 32<br/>value = [31, 1]<br/>class = C>, fillcolor="#e58139f7"] ;
194 -> 196 ;
197 [label=<entropy = 0.267<br/>samples = 22<br/>value = [21, 1]<br/>class = C>, fillcolor="#e58139f3"] ;
196 -> 197 ;
198 [label=<entropy = 0.0<br/>samples = 10<br/>value = [10, 0]<br/>class = C>, fillcolor="#e58139ff"] ;
196 -> 198 ;
199 [label=<entropy = 0.0<br/>samples = 188<br/>value = [188, 0]<br/>class = C>, fillcolor="#e58139ff"] ;
159 -> 199 ;
200 [label=<tenure &le; 0.882<br/>entropy = 0.402<br/>samples = 50<br/>value = [46, 4]<br/>class = C>, fillcolor="#e58139e9"] ;
158 -> 200 ;
201 [label=<entropy = 0.0<br/>samples = 21<br/>value = [21, 0]<br/>class = C>, fillcolor="#e58139ff"] ;
200 -> 201 ;
202 [label=<tenure &le; 0.938<br/>entropy = 0.579<br/>samples = 29<br/>value = [25, 4]<br/>class = C>, fillcolor="#e58139d6"] ;
200 -> 202 ;
203 [label=<tenure &le; 0.91<br/>entropy = 0.863<br/>samples = 7<br/>value = [5, 2]<br/>class = C>, fillcolor="#e5813999"] ;
202 -> 203 ;
204 [label=<entropy = 0.918<br/>samples = 3<br/>value = [2, 1]<br/>class = C>, fillcolor="#e581397f"] ;
203 -> 204 ;
205 [label=<entropy = 0.811<br/>samples = 4<br/>value = [3, 1]<br/>class = C>, fillcolor="#e58139aa"] ;
203 -> 205 ;
206 [label=<tenure &le; 0.979<br/>entropy = 0.439<br/>samples = 22<br/>value = [20, 2]<br/>class = C>, fillcolor="#e58139e6"] ;
202 -> 206 ;
207 [label=<entropy = 0.0<br/>samples = 7<br/>value = [7, 0]<br/>class = C>, fillcolor="#e58139ff"] ;
206 -> 207 ;
208 [label=<InternetService_No &le; 0.5<br/>entropy = 0.567<br/>samples = 15<br/>value = [13, 2]<br/>class = C>, fillcolor="#e58139d8"] ;
206 -> 208 ;
209 [label=<tenure &le; 0.993<br/>entropy = 0.65<br/>samples = 12<br/>value = [10, 2]<br/>class = C>, fillcolor="#e58139cc"] ;
208 -> 209 ;
210 [label=<entropy = 0.722<br/>samples = 5<br/>value = [4, 1]<br/>class = C>, fillcolor="#e58139bf"] ;
209 -> 210 ;
211 [label=<entropy = 0.592<br/>samples = 7<br/>value = [6, 1]<br/>class = C>, fillcolor="#e58139d4"] ;
209 -> 211 ;
212 [label=<entropy = 0.0<br/>samples = 3<br/>value = [3, 0]<br/>class = C>, fillcolor="#e58139ff"] ;
208 -> 212 ;
213 [label=<tenure &le; 0.951<br/>entropy = 0.558<br/>samples = 661<br/>value = [575, 86]<br/>class = C>, fillcolor="#e58139d9"] ;
1 -> 213 ;
214 [label=<PaymentMethod_Electronic check &le; 0.5<br/>entropy = 0.653<br/>samples = 458<br/>value = [381, 77]<br/>class = C>, fillcolor="#e58139cb"] ;
213 -> 214 ;
215 [label=<tenure &le; 0.812<br/>entropy = 0.562<br/>samples = 311<br/>value = [270, 41]<br/>class = C>, fillcolor="#e58139d8"] ;
214 -> 215 ;
216 [label=<tenure &le; 0.646<br/>entropy = 0.63<br/>samples = 177<br/>value = [149, 28]<br/>class = C>, fillcolor="#e58139cf"] ;
215 -> 216 ;
217 [label=<Contract_Two year &le; 0.5<br/>entropy = 0.499<br/>samples = 82<br/>value = [73, 9]<br/>class = C>, fillcolor="#e58139e0"] ;
216 -> 217 ;
218 [label=<tenure &le; 0.618<br/>entropy = 0.544<br/>samples = 72<br/>value = [63, 9]<br/>class = C>, fillcolor="#e58139db"] ;
217 -> 218 ;
219 [label=<tenure &le; 0.451<br/>entropy = 0.586<br/>samples = 64<br/>value = [55, 9]<br/>class = C>, fillcolor="#e58139d5"] ;
218 -> 219 ;
220 [label=<tenure &le; 0.243<br/>entropy = 0.414<br/>samples = 36<br/>value = [33, 3]<br/>class = C>, fillcolor="#e58139e8"] ;
219 -> 220 ;
221 [label=<tenure &le; 0.188<br/>entropy = 0.863<br/>samples = 7<br/>value = [5, 2]<br/>class = C>, fillcolor="#e5813999"] ;
220 -> 221 ;
222 [label=<entropy = 0.0<br/>samples = 4<br/>value = [4, 0]<br/>class = C>, fillcolor="#e58139ff"] ;
221 -> 222 ;
223 [label=<tenure &le; 0.215<br/>entropy = 0.918<br/>samples = 3<br/>value = [1, 2]<br/>class = h>, fillcolor="#399de57f"] ;
221 -> 223 ;
224 [label=<entropy = 0.0<br/>samples = 1<br/>value = [0, 1]<br/>class = h>, fillcolor="#399de5ff"] ;
223 -> 224 ;
225 [label=<entropy = 1.0<br/>samples = 2<br/>value = [1, 1]<br/>class = C>, fillcolor="#e5813900"] ;
223 -> 225 ;
226 [label=<tenure &le; 0.382<br/>entropy = 0.216<br/>samples = 29<br/>value = [28, 1]<br/>class = C>, fillcolor="#e58139f6"] ;
220 -> 226 ;
227 [label=<entropy = 0.0<br/>samples = 15<br/>value = [15, 0]<br/>class = C>, fillcolor="#e58139ff"] ;
226 -> 227 ;
228 [label=<tenure &le; 0.396<br/>entropy = 0.371<br/>samples = 14<br/>value = [13, 1]<br/>class = C>, fillcolor="#e58139eb"] ;
226 -> 228 ;
229 [label=<entropy = 0.722<br/>samples = 5<br/>value = [4, 1]<br/>class = C>, fillcolor="#e58139bf"] ;
228 -> 229 ;
230 [label=<entropy = 0.0<br/>samples = 9<br/>value = [9, 0]<br/>class = C>, fillcolor="#e58139ff"] ;
228 -> 230 ;
231 [label=<tenure &le; 0.562<br/>entropy = 0.75<br/>samples = 28<br/>value = [22, 6]<br/>class = C>, fillcolor="#e58139b9"] ;
219 -> 231 ;
232 [label=<tenure &le; 0.465<br/>entropy = 0.874<br/>samples = 17<br/>value = [12, 5]<br/>class = C>, fillcolor="#e5813995"] ;
231 -> 232 ;
233 [label=<entropy = 1.0<br/>samples = 2<br/>value = [1, 1]<br/>class = C>, fillcolor="#e5813900"] ;
232 -> 233 ;
234 [label=<tenure &le; 0.479<br/>entropy = 0.837<br/>samples = 15<br/>value = [11, 4]<br/>class = C>, fillcolor="#e58139a2"] ;
232 -> 234 ;
235 [label=<entropy = 0.0<br/>samples = 2<br/>value = [2, 0]<br/>class = C>, fillcolor="#e58139ff"] ;
234 -> 235 ;
236 [label=<tenure &le; 0.493<br/>entropy = 0.89<br/>samples = 13<br/>value = [9, 4]<br/>class = C>, fillcolor="#e581398e"] ;
234 -> 236 ;
237 [label=<entropy = 1.0<br/>samples = 2<br/>value = [1, 1]<br/>class = C>, fillcolor="#e5813900"] ;
236 -> 237 ;
238 [label=<tenure &le; 0.521<br/>entropy = 0.845<br/>samples = 11<br/>value = [8, 3]<br/>class = C>, fillcolor="#e581399f"] ;
236 -> 238 ;
239 [label=<entropy = 0.0<br/>samples = 2<br/>value = [2, 0]<br/>class = C>, fillcolor="#e58139ff"] ;
238 -> 239 ;
240 [label=<tenure &le; 0.535<br/>entropy = 0.918<br/>samples = 9<br/>value = [6, 3]<br/>class = C>, fillcolor="#e581397f"] ;
238 -> 240 ;
241 [label=<entropy = 0.918<br/>samples = 3<br/>value = [2, 1]<br/>class = C>, fillcolor="#e581397f"] ;
240 -> 241 ;
242 [label=<tenure &le; 0.549<br/>entropy = 0.918<br/>samples = 6<br/>value = [4, 2]<br/>class = C>, fillcolor="#e581397f"] ;
240 -> 242 ;
243 [label=<entropy = 0.918<br/>samples = 3<br/>value = [2, 1]<br/>class = C>, fillcolor="#e581397f"] ;
242 -> 243 ;
244 [label=<entropy = 0.918<br/>samples = 3<br/>value = [2, 1]<br/>class = C>, fillcolor="#e581397f"] ;
242 -> 244 ;
245 [label=<tenure &le; 0.604<br/>entropy = 0.439<br/>samples = 11<br/>value = [10, 1]<br/>class = C>, fillcolor="#e58139e6"] ;
231 -> 245 ;
246 [label=<entropy = 0.0<br/>samples = 9<br/>value = [9, 0]<br/>class = C>, fillcolor="#e58139ff"] ;
245 -> 246 ;
247 [label=<entropy = 1.0<br/>samples = 2<br/>value = [1, 1]<br/>class = C>, fillcolor="#e5813900"] ;
245 -> 247 ;
248 [label=<entropy = 0.0<br/>samples = 8<br/>value = [8, 0]<br/>class = C>, fillcolor="#e58139ff"] ;
218 -> 248 ;
249 [label=<entropy = 0.0<br/>samples = 10<br/>value = [10, 0]<br/>class = C>, fillcolor="#e58139ff"] ;
217 -> 249 ;
250 [label=<tenure &le; 0.688<br/>entropy = 0.722<br/>samples = 95<br/>value = [76, 19]<br/>class = C>, fillcolor="#e58139bf"] ;
216 -> 250 ;
251 [label=<tenure &le; 0.66<br/>entropy = 0.902<br/>samples = 22<br/>value = [15, 7]<br/>class = C>, fillcolor="#e5813988"] ;
250 -> 251 ;
252 [label=<entropy = 0.65<br/>samples = 6<br/>value = [5, 1]<br/>class = C>, fillcolor="#e58139cc"] ;
251 -> 252 ;
253 [label=<tenure &le; 0.674<br/>entropy = 0.954<br/>samples = 16<br/>value = [10, 6]<br/>class = C>, fillcolor="#e5813966"] ;
251 -> 253 ;
254 [label=<Contract_Two year &le; 0.5<br/>entropy = 1.0<br/>samples = 6<br/>value = [3, 3]<br/>class = C>, fillcolor="#e5813900"] ;
253 -> 254 ;
255 [label=<entropy = 0.918<br/>samples = 3<br/>value = [1, 2]<br/>class = h>, fillcolor="#399de57f"] ;
254 -> 255 ;
256 [label=<entropy = 0.918<br/>samples = 3<br/>value = [2, 1]<br/>class = C>, fillcolor="#e581397f"] ;
254 -> 256 ;
257 [label=<Contract_Two year &le; 0.5<br/>entropy = 0.881<br/>samples = 10<br/>value = [7, 3]<br/>class = C>, fillcolor="#e5813992"] ;
253 -> 257 ;
258 [label=<entropy = 0.863<br/>samples = 7<br/>value = [5, 2]<br/>class = C>, fillcolor="#e5813999"] ;
257 -> 258 ;
259 [label=<entropy = 0.918<br/>samples = 3<br/>value = [2, 1]<br/>class = C>, fillcolor="#e581397f"] ;
257 -> 259 ;
260 [label=<tenure &le; 0.715<br/>entropy = 0.645<br/>samples = 73<br/>value = [61, 12]<br/>class = C>, fillcolor="#e58139cd"] ;
250 -> 260 ;
261 [label=<entropy = 0.0<br/>samples = 15<br/>value = [15, 0]<br/>class = C>, fillcolor="#e58139ff"] ;
260 -> 261 ;
262 [label=<Contract_Two year &le; 0.5<br/>entropy = 0.736<br/>samples = 58<br/>value = [46, 12]<br/>class = C>, fillcolor="#e58139bc"] ;
260 -> 262 ;
263 [label=<tenure &le; 0.757<br/>entropy = 0.811<br/>samples = 40<br/>value = [30, 10]<br/>class = C>, fillcolor="#e58139aa"] ;
262 -> 263 ;
264 [label=<tenure &le; 0.729<br/>entropy = 0.918<br/>samples = 18<br/>value = [12, 6]<br/>class = C>, fillcolor="#e581397f"] ;
263 -> 264 ;
265 [label=<entropy = 0.918<br/>samples = 6<br/>value = [4, 2]<br/>class = C>, fillcolor="#e581397f"] ;
264 -> 265 ;
266 [label=<tenure &le; 0.743<br/>entropy = 0.918<br/>samples = 12<br/>value = [8, 4]<br/>class = C>, fillcolor="#e581397f"] ;
264 -> 266 ;
267 [label=<entropy = 0.918<br/>samples = 6<br/>value = [4, 2]<br/>class = C>, fillcolor="#e581397f"] ;
266 -> 267 ;
268 [label=<entropy = 0.918<br/>samples = 6<br/>value = [4, 2]<br/>class = C>, fillcolor="#e581397f"] ;
266 -> 268 ;
269 [label=<tenure &le; 0.771<br/>entropy = 0.684<br/>samples = 22<br/>value = [18, 4]<br/>class = C>, fillcolor="#e58139c6"] ;
263 -> 269 ;
270 [label=<entropy = 0.0<br/>samples = 4<br/>value = [4, 0]<br/>class = C>, fillcolor="#e58139ff"] ;
269 -> 270 ;
271 [label=<tenure &le; 0.785<br/>entropy = 0.764<br/>samples = 18<br/>value = [14, 4]<br/>class = C>, fillcolor="#e58139b6"] ;
269 -> 271 ;
272 [label=<entropy = 0.881<br/>samples = 10<br/>value = [7, 3]<br/>class = C>, fillcolor="#e5813992"] ;
271 -> 272 ;
273 [label=<tenure &le; 0.799<br/>entropy = 0.544<br/>samples = 8<br/>value = [7, 1]<br/>class = C>, fillcolor="#e58139db"] ;
271 -> 273 ;
274 [label=<entropy = 0.0<br/>samples = 2<br/>value = [2, 0]<br/>class = C>, fillcolor="#e58139ff"] ;
273 -> 274 ;
275 [label=<entropy = 0.65<br/>samples = 6<br/>value = [5, 1]<br/>class = C>, fillcolor="#e58139cc"] ;
273 -> 275 ;
276 [label=<tenure &le; 0.785<br/>entropy = 0.503<br/>samples = 18<br/>value = [16, 2]<br/>class = C>, fillcolor="#e58139df"] ;
262 -> 276 ;
277 [label=<entropy = 0.0<br/>samples = 12<br/>value = [12, 0]<br/>class = C>, fillcolor="#e58139ff"] ;
276 -> 277 ;
278 [label=<tenure &le; 0.799<br/>entropy = 0.918<br/>samples = 6<br/>value = [4, 2]<br/>class = C>, fillcolor="#e581397f"] ;
276 -> 278 ;
279 [label=<entropy = 1.0<br/>samples = 2<br/>value = [1, 1]<br/>class = C>, fillcolor="#e5813900"] ;
278 -> 279 ;
280 [label=<entropy = 0.811<br/>samples = 4<br/>value = [3, 1]<br/>class = C>, fillcolor="#e58139aa"] ;
278 -> 280 ;
281 [label=<tenure &le; 0.91<br/>entropy = 0.459<br/>samples = 134<br/>value = [121, 13]<br/>class = C>, fillcolor="#e58139e4"] ;
215 -> 281 ;
282 [label=<tenure &le; 0.84<br/>entropy = 0.245<br/>samples = 74<br/>value = [71, 3]<br/>class = C>, fillcolor="#e58139f4"] ;
281 -> 282 ;
283 [label=<entropy = 0.0<br/>samples = 12<br/>value = [12, 0]<br/>class = C>, fillcolor="#e58139ff"] ;
282 -> 283 ;
284 [label=<tenure &le; 0.896<br/>entropy = 0.28<br/>samples = 62<br/>value = [59, 3]<br/>class = C>, fillcolor="#e58139f2"] ;
282 -> 284 ;
285 [label=<tenure &le; 0.882<br/>entropy = 0.327<br/>samples = 50<br/>value = [47, 3]<br/>class = C>, fillcolor="#e58139ef"] ;
284 -> 285 ;
286 [label=<tenure &le; 0.854<br/>entropy = 0.191<br/>samples = 34<br/>value = [33, 1]<br/>class = C>, fillcolor="#e58139f7"] ;
285 -> 286 ;
287 [label=<Contract_Two year &le; 0.5<br/>entropy = 0.439<br/>samples = 11<br/>value = [10, 1]<br/>class = C>, fillcolor="#e58139e6"] ;
286 -> 287 ;
288 [label=<entropy = 0.0<br/>samples = 8<br/>value = [8, 0]<br/>class = C>, fillcolor="#e58139ff"] ;
287 -> 288 ;
289 [label=<entropy = 0.918<br/>samples = 3<br/>value = [2, 1]<br/>class = C>, fillcolor="#e581397f"] ;
287 -> 289 ;
290 [label=<entropy = 0.0<br/>samples = 23<br/>value = [23, 0]<br/>class = C>, fillcolor="#e58139ff"] ;
286 -> 290 ;
291 [label=<Contract_Two year &le; 0.5<br/>entropy = 0.544<br/>samples = 16<br/>value = [14, 2]<br/>class = C>, fillcolor="#e58139db"] ;
285 -> 291 ;
292 [label=<entropy = 0.764<br/>samples = 9<br/>value = [7, 2]<br/>class = C>, fillcolor="#e58139b6"] ;
291 -> 292 ;
293 [label=<entropy = 0.0<br/>samples = 7<br/>value = [7, 0]<br/>class = C>, fillcolor="#e58139ff"] ;
291 -> 293 ;
294 [label=<entropy = 0.0<br/>samples = 12<br/>value = [12, 0]<br/>class = C>, fillcolor="#e58139ff"] ;
284 -> 294 ;
295 [label=<tenure &le; 0.938<br/>entropy = 0.65<br/>samples = 60<br/>value = [50, 10]<br/>class = C>, fillcolor="#e58139cc"] ;
281 -> 295 ;
296 [label=<Contract_Two year &le; 0.5<br/>entropy = 0.702<br/>samples = 42<br/>value = [34, 8]<br/>class = C>, fillcolor="#e58139c3"] ;
295 -> 296 ;
297 [label=<tenure &le; 0.924<br/>entropy = 0.706<br/>samples = 26<br/>value = [21, 5]<br/>class = C>, fillcolor="#e58139c2"] ;
296 -> 297 ;
298 [label=<entropy = 0.696<br/>samples = 16<br/>value = [13, 3]<br/>class = C>, fillcolor="#e58139c4"] ;
297 -> 298 ;
299 [label=<entropy = 0.722<br/>samples = 10<br/>value = [8, 2]<br/>class = C>, fillcolor="#e58139bf"] ;
297 -> 299 ;
300 [label=<tenure &le; 0.924<br/>entropy = 0.696<br/>samples = 16<br/>value = [13, 3]<br/>class = C>, fillcolor="#e58139c4"] ;
296 -> 300 ;
301 [label=<entropy = 0.722<br/>samples = 5<br/>value = [4, 1]<br/>class = C>, fillcolor="#e58139bf"] ;
300 -> 301 ;
302 [label=<entropy = 0.684<br/>samples = 11<br/>value = [9, 2]<br/>class = C>, fillcolor="#e58139c6"] ;
300 -> 302 ;
303 [label=<Contract_Two year &le; 0.5<br/>entropy = 0.503<br/>samples = 18<br/>value = [16, 2]<br/>class = C>, fillcolor="#e58139df"] ;
295 -> 303 ;
304 [label=<entropy = 0.65<br/>samples = 6<br/>value = [5, 1]<br/>class = C>, fillcolor="#e58139cc"] ;
303 -> 304 ;
305 [label=<entropy = 0.414<br/>samples = 12<br/>value = [11, 1]<br/>class = C>, fillcolor="#e58139e8"] ;
303 -> 305 ;
306 [label=<tenure &le; 0.604<br/>entropy = 0.803<br/>samples = 147<br/>value = [111, 36]<br/>class = C>, fillcolor="#e58139ac"] ;
214 -> 306 ;
307 [label=<tenure &le; 0.59<br/>entropy = 0.947<br/>samples = 41<br/>value = [26, 15]<br/>class = C>, fillcolor="#e581396c"] ;
306 -> 307 ;
308 [label=<tenure &le; 0.09<br/>entropy = 0.918<br/>samples = 39<br/>value = [26, 13]<br/>class = C>, fillcolor="#e581397f"] ;
307 -> 308 ;
309 [label=<entropy = 0.0<br/>samples = 1<br/>value = [0, 1]<br/>class = h>, fillcolor="#399de5ff"] ;
308 -> 309 ;
310 [label=<tenure &le; 0.236<br/>entropy = 0.9<br/>samples = 38<br/>value = [26, 12]<br/>class = C>, fillcolor="#e5813989"] ;
308 -> 310 ;
311 [label=<entropy = 0.0<br/>samples = 4<br/>value = [4, 0]<br/>class = C>, fillcolor="#e58139ff"] ;
310 -> 311 ;
312 [label=<tenure &le; 0.299<br/>entropy = 0.937<br/>samples = 34<br/>value = [22, 12]<br/>class = C>, fillcolor="#e5813974"] ;
310 -> 312 ;
313 [label=<entropy = 0.0<br/>samples = 1<br/>value = [0, 1]<br/>class = h>, fillcolor="#399de5ff"] ;
312 -> 313 ;
314 [label=<tenure &le; 0.576<br/>entropy = 0.918<br/>samples = 33<br/>value = [22, 11]<br/>class = C>, fillcolor="#e581397f"] ;
312 -> 314 ;
315 [label=<tenure &le; 0.444<br/>entropy = 0.938<br/>samples = 31<br/>value = [20, 11]<br/>class = C>, fillcolor="#e5813973"] ;
314 -> 315 ;
316 [label=<tenure &le; 0.403<br/>entropy = 0.764<br/>samples = 9<br/>value = [7, 2]<br/>class = C>, fillcolor="#e58139b6"] ;
315 -> 316 ;
317 [label=<Contract_Two year &le; 0.5<br/>entropy = 0.918<br/>samples = 6<br/>value = [4, 2]<br/>class = C>, fillcolor="#e581397f"] ;
316 -> 317 ;
318 [label=<tenure &le; 0.368<br/>entropy = 0.918<br/>samples = 3<br/>value = [1, 2]<br/>class = h>, fillcolor="#399de57f"] ;
317 -> 318 ;
319 [label=<entropy = 0.0<br/>samples = 1<br/>value = [0, 1]<br/>class = h>, fillcolor="#399de5ff"] ;
318 -> 319 ;
320 [label=<entropy = 1.0<br/>samples = 2<br/>value = [1, 1]<br/>class = C>, fillcolor="#e5813900"] ;
318 -> 320 ;
321 [label=<entropy = 0.0<br/>samples = 3<br/>value = [3, 0]<br/>class = C>, fillcolor="#e58139ff"] ;
317 -> 321 ;
322 [label=<entropy = 0.0<br/>samples = 3<br/>value = [3, 0]<br/>class = C>, fillcolor="#e58139ff"] ;
316 -> 322 ;
323 [label=<tenure &le; 0.465<br/>entropy = 0.976<br/>samples = 22<br/>value = [13, 9]<br/>class = C>, fillcolor="#e581394e"] ;
315 -> 323 ;
324 [label=<entropy = 0.811<br/>samples = 4<br/>value = [1, 3]<br/>class = h>, fillcolor="#399de5aa"] ;
323 -> 324 ;
325 [label=<tenure &le; 0.535<br/>entropy = 0.918<br/>samples = 18<br/>value = [12, 6]<br/>class = C>, fillcolor="#e581397f"] ;
323 -> 325 ;
326 [label=<tenure &le; 0.479<br/>entropy = 0.722<br/>samples = 10<br/>value = [8, 2]<br/>class = C>, fillcolor="#e58139bf"] ;
325 -> 326 ;
327 [label=<entropy = 0.0<br/>samples = 2<br/>value = [2, 0]<br/>class = C>, fillcolor="#e58139ff"] ;
326 -> 327 ;
328 [label=<tenure &le; 0.521<br/>entropy = 0.811<br/>samples = 8<br/>value = [6, 2]<br/>class = C>, fillcolor="#e58139aa"] ;
326 -> 328 ;
329 [label=<tenure &le; 0.5<br/>entropy = 0.918<br/>samples = 6<br/>value = [4, 2]<br/>class = C>, fillcolor="#e581397f"] ;
328 -> 329 ;
330 [label=<entropy = 0.811<br/>samples = 4<br/>value = [3, 1]<br/>class = C>, fillcolor="#e58139aa"] ;
329 -> 330 ;
331 [label=<entropy = 1.0<br/>samples = 2<br/>value = [1, 1]<br/>class = C>, fillcolor="#e5813900"] ;
329 -> 331 ;
332 [label=<entropy = 0.0<br/>samples = 2<br/>value = [2, 0]<br/>class = C>, fillcolor="#e58139ff"] ;
328 -> 332 ;
333 [label=<tenure &le; 0.549<br/>entropy = 1.0<br/>samples = 8<br/>value = [4, 4]<br/>class = C>, fillcolor="#e5813900"] ;
325 -> 333 ;
334 [label=<entropy = 0.0<br/>samples = 2<br/>value = [0, 2]<br/>class = h>, fillcolor="#399de5ff"] ;
333 -> 334 ;
335 [label=<tenure &le; 0.562<br/>entropy = 0.918<br/>samples = 6<br/>value = [4, 2]<br/>class = C>, fillcolor="#e581397f"] ;
333 -> 335 ;
336 [label=<entropy = 0.0<br/>samples = 2<br/>value = [2, 0]<br/>class = C>, fillcolor="#e58139ff"] ;
335 -> 336 ;
337 [label=<Contract_Two year &le; 0.5<br/>entropy = 1.0<br/>samples = 4<br/>value = [2, 2]<br/>class = C>, fillcolor="#e5813900"] ;
335 -> 337 ;
338 [label=<entropy = 0.918<br/>samples = 3<br/>value = [1, 2]<br/>class = h>, fillcolor="#399de57f"] ;
337 -> 338 ;
339 [label=<entropy = 0.0<br/>samples = 1<br/>value = [1, 0]<br/>class = C>, fillcolor="#e58139ff"] ;
337 -> 339 ;
340 [label=<entropy = 0.0<br/>samples = 2<br/>value = [2, 0]<br/>class = C>, fillcolor="#e58139ff"] ;
314 -> 340 ;
341 [label=<entropy = 0.0<br/>samples = 2<br/>value = [0, 2]<br/>class = h>, fillcolor="#399de5ff"] ;
307 -> 341 ;
342 [label=<tenure &le; 0.785<br/>entropy = 0.718<br/>samples = 106<br/>value = [85, 21]<br/>class = C>, fillcolor="#e58139c0"] ;
306 -> 342 ;
343 [label=<tenure &le; 0.771<br/>entropy = 0.496<br/>samples = 46<br/>value = [41, 5]<br/>class = C>, fillcolor="#e58139e0"] ;
342 -> 343 ;
344 [label=<tenure &le; 0.757<br/>entropy = 0.562<br/>samples = 38<br/>value = [33, 5]<br/>class = C>, fillcolor="#e58139d8"] ;
343 -> 344 ;
345 [label=<tenure &le; 0.743<br/>entropy = 0.494<br/>samples = 37<br/>value = [33, 4]<br/>class = C>, fillcolor="#e58139e0"] ;
344 -> 345 ;
346 [label=<tenure &le; 0.715<br/>entropy = 0.431<br/>samples = 34<br/>value = [31, 3]<br/>class = C>, fillcolor="#e58139e6"] ;
345 -> 346 ;
347 [label=<tenure &le; 0.632<br/>entropy = 0.503<br/>samples = 27<br/>value = [24, 3]<br/>class = C>, fillcolor="#e58139df"] ;
346 -> 347 ;
348 [label=<entropy = 0.0<br/>samples = 3<br/>value = [3, 0]<br/>class = C>, fillcolor="#e58139ff"] ;
347 -> 348 ;
349 [label=<Contract_Two year &le; 0.5<br/>entropy = 0.544<br/>samples = 24<br/>value = [21, 3]<br/>class = C>, fillcolor="#e58139db"] ;
347 -> 349 ;
350 [label=<tenure &le; 0.646<br/>entropy = 0.575<br/>samples = 22<br/>value = [19, 3]<br/>class = C>, fillcolor="#e58139d7"] ;
349 -> 350 ;
351 [label=<entropy = 0.811<br/>samples = 4<br/>value = [3, 1]<br/>class = C>, fillcolor="#e58139aa"] ;
350 -> 351 ;
352 [label=<tenure &le; 0.688<br/>entropy = 0.503<br/>samples = 18<br/>value = [16, 2]<br/>class = C>, fillcolor="#e58139df"] ;
350 -> 352 ;
353 [label=<entropy = 0.0<br/>samples = 6<br/>value = [6, 0]<br/>class = C>, fillcolor="#e58139ff"] ;
352 -> 353 ;
354 [label=<tenure &le; 0.701<br/>entropy = 0.65<br/>samples = 12<br/>value = [10, 2]<br/>class = C>, fillcolor="#e58139cc"] ;
352 -> 354 ;
355 [label=<entropy = 0.592<br/>samples = 7<br/>value = [6, 1]<br/>class = C>, fillcolor="#e58139d4"] ;
354 -> 355 ;
356 [label=<entropy = 0.722<br/>samples = 5<br/>value = [4, 1]<br/>class = C>, fillcolor="#e58139bf"] ;
354 -> 356 ;
357 [label=<entropy = 0.0<br/>samples = 2<br/>value = [2, 0]<br/>class = C>, fillcolor="#e58139ff"] ;
349 -> 357 ;
358 [label=<entropy = 0.0<br/>samples = 7<br/>value = [7, 0]<br/>class = C>, fillcolor="#e58139ff"] ;
346 -> 358 ;
359 [label=<entropy = 0.918<br/>samples = 3<br/>value = [2, 1]<br/>class = C>, fillcolor="#e581397f"] ;
345 -> 359 ;
360 [label=<entropy = 0.0<br/>samples = 1<br/>value = [0, 1]<br/>class = h>, fillcolor="#399de5ff"] ;
344 -> 360 ;
361 [label=<entropy = 0.0<br/>samples = 8<br/>value = [8, 0]<br/>class = C>, fillcolor="#e58139ff"] ;
343 -> 361 ;
362 [label=<tenure &le; 0.868<br/>entropy = 0.837<br/>samples = 60<br/>value = [44, 16]<br/>class = C>, fillcolor="#e58139a2"] ;
342 -> 362 ;
363 [label=<tenure &le; 0.84<br/>entropy = 0.94<br/>samples = 28<br/>value = [18, 10]<br/>class = C>, fillcolor="#e5813971"] ;
362 -> 363 ;
364 [label=<tenure &le; 0.826<br/>entropy = 0.852<br/>samples = 18<br/>value = [13, 5]<br/>class = C>, fillcolor="#e581399d"] ;
363 -> 364 ;
365 [label=<tenure &le; 0.799<br/>entropy = 0.94<br/>samples = 14<br/>value = [9, 5]<br/>class = C>, fillcolor="#e5813971"] ;
364 -> 365 ;
366 [label=<Contract_Two year &le; 0.5<br/>entropy = 0.722<br/>samples = 5<br/>value = [4, 1]<br/>class = C>, fillcolor="#e58139bf"] ;
365 -> 366 ;
367 [label=<entropy = 0.0<br/>samples = 3<br/>value = [3, 0]<br/>class = C>, fillcolor="#e58139ff"] ;
366 -> 367 ;
368 [label=<entropy = 1.0<br/>samples = 2<br/>value = [1, 1]<br/>class = C>, fillcolor="#e5813900"] ;
366 -> 368 ;
369 [label=<tenure &le; 0.812<br/>entropy = 0.991<br/>samples = 9<br/>value = [5, 4]<br/>class = C>, fillcolor="#e5813933"] ;
365 -> 369 ;
370 [label=<entropy = 1.0<br/>samples = 4<br/>value = [2, 2]<br/>class = C>, fillcolor="#e5813900"] ;
369 -> 370 ;
371 [label=<entropy = 0.971<br/>samples = 5<br/>value = [3, 2]<br/>class = C>, fillcolor="#e5813955"] ;
369 -> 371 ;
372 [label=<entropy = 0.0<br/>samples = 4<br/>value = [4, 0]<br/>class = C>, fillcolor="#e58139ff"] ;
364 -> 372 ;
373 [label=<Contract_Two year &le; 0.5<br/>entropy = 1.0<br/>samples = 10<br/>value = [5, 5]<br/>class = C>, fillcolor="#e5813900"] ;
363 -> 373 ;
374 [label=<tenure &le; 0.854<br/>entropy = 0.985<br/>samples = 7<br/>value = [4, 3]<br/>class = C>, fillcolor="#e5813940"] ;
373 -> 374 ;
375 [label=<entropy = 0.918<br/>samples = 3<br/>value = [2, 1]<br/>class = C>, fillcolor="#e581397f"] ;
374 -> 375 ;
376 [label=<entropy = 1.0<br/>samples = 4<br/>value = [2, 2]<br/>class = C>, fillcolor="#e5813900"] ;
374 -> 376 ;
377 [label=<tenure &le; 0.854<br/>entropy = 0.918<br/>samples = 3<br/>value = [1, 2]<br/>class = h>, fillcolor="#399de57f"] ;
373 -> 377 ;
378 [label=<entropy = 0.0<br/>samples = 2<br/>value = [0, 2]<br/>class = h>, fillcolor="#399de5ff"] ;
377 -> 378 ;
379 [label=<entropy = 0.0<br/>samples = 1<br/>value = [1, 0]<br/>class = C>, fillcolor="#e58139ff"] ;
377 -> 379 ;
380 [label=<Contract_Two year &le; 0.5<br/>entropy = 0.696<br/>samples = 32<br/>value = [26, 6]<br/>class = C>, fillcolor="#e58139c4"] ;
362 -> 380 ;
381 [label=<tenure &le; 0.924<br/>entropy = 0.828<br/>samples = 23<br/>value = [17, 6]<br/>class = C>, fillcolor="#e58139a5"] ;
380 -> 381 ;
382 [label=<tenure &le; 0.896<br/>entropy = 0.567<br/>samples = 15<br/>value = [13, 2]<br/>class = C>, fillcolor="#e58139d8"] ;
381 -> 382 ;
383 [label=<entropy = 0.0<br/>samples = 5<br/>value = [5, 0]<br/>class = C>, fillcolor="#e58139ff"] ;
382 -> 383 ;
384 [label=<tenure &le; 0.91<br/>entropy = 0.722<br/>samples = 10<br/>value = [8, 2]<br/>class = C>, fillcolor="#e58139bf"] ;
382 -> 384 ;
385 [label=<entropy = 0.722<br/>samples = 5<br/>value = [4, 1]<br/>class = C>, fillcolor="#e58139bf"] ;
384 -> 385 ;
386 [label=<entropy = 0.722<br/>samples = 5<br/>value = [4, 1]<br/>class = C>, fillcolor="#e58139bf"] ;
384 -> 386 ;
387 [label=<tenure &le; 0.938<br/>entropy = 1.0<br/>samples = 8<br/>value = [4, 4]<br/>class = C>, fillcolor="#e5813900"] ;
381 -> 387 ;
388 [label=<entropy = 0.971<br/>samples = 5<br/>value = [3, 2]<br/>class = C>, fillcolor="#e5813955"] ;
387 -> 388 ;
389 [label=<entropy = 0.918<br/>samples = 3<br/>value = [1, 2]<br/>class = h>, fillcolor="#399de57f"] ;
387 -> 389 ;
390 [label=<entropy = 0.0<br/>samples = 9<br/>value = [9, 0]<br/>class = C>, fillcolor="#e58139ff"] ;
380 -> 390 ;
391 [label=<tenure &le; 0.993<br/>entropy = 0.262<br/>samples = 203<br/>value = [194, 9]<br/>class = C>, fillcolor="#e58139f3"] ;
213 -> 391 ;
392 [label=<PaymentMethod_Electronic check &le; 0.5<br/>entropy = 0.38<br/>samples = 95<br/>value = [88, 7]<br/>class = C>, fillcolor="#e58139eb"] ;
391 -> 392 ;
393 [label=<Contract_Two year &le; 0.5<br/>entropy = 0.418<br/>samples = 71<br/>value = [65, 6]<br/>class = C>, fillcolor="#e58139e7"] ;
392 -> 393 ;
394 [label=<tenure &le; 0.979<br/>entropy = 0.529<br/>samples = 25<br/>value = [22, 3]<br/>class = C>, fillcolor="#e58139dc"] ;
393 -> 394 ;
395 [label=<tenure &le; 0.965<br/>entropy = 0.75<br/>samples = 14<br/>value = [11, 3]<br/>class = C>, fillcolor="#e58139b9"] ;
394 -> 395 ;
396 [label=<entropy = 0.503<br/>samples = 9<br/>value = [8, 1]<br/>class = C>, fillcolor="#e58139df"] ;
395 -> 396 ;
397 [label=<entropy = 0.971<br/>samples = 5<br/>value = [3, 2]<br/>class = C>, fillcolor="#e5813955"] ;
395 -> 397 ;
398 [label=<entropy = 0.0<br/>samples = 11<br/>value = [11, 0]<br/>class = C>, fillcolor="#e58139ff"] ;
394 -> 398 ;
399 [label=<tenure &le; 0.979<br/>entropy = 0.348<br/>samples = 46<br/>value = [43, 3]<br/>class = C>, fillcolor="#e58139ed"] ;
393 -> 399 ;
400 [label=<tenure &le; 0.965<br/>entropy = 0.258<br/>samples = 23<br/>value = [22, 1]<br/>class = C>, fillcolor="#e58139f3"] ;
399 -> 400 ;
401 [label=<entropy = 0.391<br/>samples = 13<br/>value = [12, 1]<br/>class = C>, fillcolor="#e58139ea"] ;
400 -> 401 ;
402 [label=<entropy = 0.0<br/>samples = 10<br/>value = [10, 0]<br/>class = C>, fillcolor="#e58139ff"] ;
400 -> 402 ;
403 [label=<entropy = 0.426<br/>samples = 23<br/>value = [21, 2]<br/>class = C>, fillcolor="#e58139e7"] ;
399 -> 403 ;
404 [label=<tenure &le; 0.979<br/>entropy = 0.25<br/>samples = 24<br/>value = [23, 1]<br/>class = C>, fillcolor="#e58139f4"] ;
392 -> 404 ;
405 [label=<entropy = 0.0<br/>samples = 11<br/>value = [11, 0]<br/>class = C>, fillcolor="#e58139ff"] ;
404 -> 405 ;
406 [label=<Contract_Two year &le; 0.5<br/>entropy = 0.391<br/>samples = 13<br/>value = [12, 1]<br/>class = C>, fillcolor="#e58139ea"] ;
404 -> 406 ;
407 [label=<entropy = 0.0<br/>samples = 2<br/>value = [2, 0]<br/>class = C>, fillcolor="#e58139ff"] ;
406 -> 407 ;
408 [label=<entropy = 0.439<br/>samples = 11<br/>value = [10, 1]<br/>class = C>, fillcolor="#e58139e6"] ;
406 -> 408 ;
409 [label=<Contract_Two year &le; 0.5<br/>entropy = 0.133<br/>samples = 108<br/>value = [106, 2]<br/>class = C>, fillcolor="#e58139fa"] ;
391 -> 409 ;
410 [label=<PaymentMethod_Electronic check &le; 0.5<br/>entropy = 0.592<br/>samples = 7<br/>value = [6, 1]<br/>class = C>, fillcolor="#e58139d4"] ;
409 -> 410 ;
411 [label=<entropy = 0.722<br/>samples = 5<br/>value = [4, 1]<br/>class = C>, fillcolor="#e58139bf"] ;
410 -> 411 ;
412 [label=<entropy = 0.0<br/>samples = 2<br/>value = [2, 0]<br/>class = C>, fillcolor="#e58139ff"] ;
410 -> 412 ;
413 [label=<PaymentMethod_Electronic check &le; 0.5<br/>entropy = 0.08<br/>samples = 101<br/>value = [100, 1]<br/>class = C>, fillcolor="#e58139fc"] ;
409 -> 413 ;
414 [label=<entropy = 0.0<br/>samples = 85<br/>value = [85, 0]<br/>class = C>, fillcolor="#e58139ff"] ;
413 -> 414 ;
415 [label=<entropy = 0.337<br/>samples = 16<br/>value = [15, 1]<br/>class = C>, fillcolor="#e58139ee"] ;
413 -> 415 ;
416 [label=<InternetService_Fiber optic &le; 0.5<br/>entropy = 0.987<br/>samples = 2721<br/>value = [1543, 1178]<br/>class = C>, fillcolor="#e581393c"] ;
0 -> 416 [labeldistance=2.5, labelangle=-45, headlabel="False"] ;
417 [label=<tenure &le; 0.049<br/>entropy = 0.866<br/>samples = 1210<br/>value = [862, 348]<br/>class = C>, fillcolor="#e5813998"] ;
416 -> 417 ;
418 [label=<InternetService_No &le; 0.5<br/>entropy = 0.995<br/>samples = 403<br/>value = [219, 184]<br/>class = C>, fillcolor="#e5813929"] ;
417 -> 418 ;
419 [label=<PaymentMethod_Electronic check &le; 0.5<br/>entropy = 0.992<br/>samples = 245<br/>value = [110, 135]<br/>class = h>, fillcolor="#399de52f"] ;
418 -> 419 ;
420 [label=<tenure &le; 0.035<br/>entropy = 1.0<br/>samples = 133<br/>value = [68, 65]<br/>class = C>, fillcolor="#e581390b"] ;
419 -> 420 ;
421 [label=<tenure &le; 0.021<br/>entropy = 0.999<br/>samples = 105<br/>value = [51, 54]<br/>class = h>, fillcolor="#399de50e"] ;
420 -> 421 ;
422 [label=<entropy = 0.999<br/>samples = 74<br/>value = [36, 38]<br/>class = h>, fillcolor="#399de50d"] ;
421 -> 422 ;
423 [label=<entropy = 0.999<br/>samples = 31<br/>value = [15, 16]<br/>class = h>, fillcolor="#399de510"] ;
421 -> 423 ;
424 [label=<entropy = 0.967<br/>samples = 28<br/>value = [17, 11]<br/>class = C>, fillcolor="#e581395a"] ;
420 -> 424 ;
425 [label=<tenure &le; 0.021<br/>entropy = 0.954<br/>samples = 112<br/>value = [42, 70]<br/>class = h>, fillcolor="#399de566"] ;
419 -> 425 ;
426 [label=<entropy = 0.928<br/>samples = 67<br/>value = [23, 44]<br/>class = h>, fillcolor="#399de57a"] ;
425 -> 426 ;
427 [label=<tenure &le; 0.035<br/>entropy = 0.982<br/>samples = 45<br/>value = [19, 26]<br/>class = h>, fillcolor="#399de545"] ;
425 -> 427 ;
428 [label=<entropy = 1.0<br/>samples = 26<br/>value = [13, 13]<br/>class = C>, fillcolor="#e5813900"] ;
427 -> 428 ;
429 [label=<entropy = 0.9<br/>samples = 19<br/>value = [6, 13]<br/>class = h>, fillcolor="#399de589"] ;
427 -> 429 ;
430 [label=<tenure &le; 0.021<br/>entropy = 0.893<br/>samples = 158<br/>value = [109, 49]<br/>class = C>, fillcolor="#e581398c"] ;
418 -> 430 ;
431 [label=<PaymentMethod_Electronic check &le; 0.5<br/>entropy = 0.961<br/>samples = 112<br/>value = [69, 43]<br/>class = C>, fillcolor="#e5813960"] ;
430 -> 431 ;
432 [label=<entropy = 0.959<br/>samples = 97<br/>value = [60, 37]<br/>class = C>, fillcolor="#e5813962"] ;
431 -> 432 ;
433 [label=<entropy = 0.971<br/>samples = 15<br/>value = [9, 6]<br/>class = C>, fillcolor="#e5813955"] ;
431 -> 433 ;
434 [label=<tenure &le; 0.035<br/>entropy = 0.559<br/>samples = 46<br/>value = [40, 6]<br/>class = C>, fillcolor="#e58139d9"] ;
430 -> 434 ;
435 [label=<PaymentMethod_Electronic check &le; 0.5<br/>entropy = 0.242<br/>samples = 25<br/>value = [24, 1]<br/>class = C>, fillcolor="#e58139f4"] ;
434 -> 435 ;
436 [label=<entropy = 0.258<br/>samples = 23<br/>value = [22, 1]<br/>class = C>, fillcolor="#e58139f3"] ;
435 -> 436 ;
437 [label=<entropy = 0.0<br/>samples = 2<br/>value = [2, 0]<br/>class = C>, fillcolor="#e58139ff"] ;
435 -> 437 ;
438 [label=<PaymentMethod_Electronic check &le; 0.5<br/>entropy = 0.792<br/>samples = 21<br/>value = [16, 5]<br/>class = C>, fillcolor="#e58139af"] ;
434 -> 438 ;
439 [label=<entropy = 0.787<br/>samples = 17<br/>value = [13, 4]<br/>class = C>, fillcolor="#e58139b1"] ;
438 -> 439 ;
440 [label=<entropy = 0.811<br/>samples = 4<br/>value = [3, 1]<br/>class = C>, fillcolor="#e58139aa"] ;
438 -> 440 ;
441 [label=<InternetService_No &le; 0.5<br/>entropy = 0.728<br/>samples = 807<br/>value = [643, 164]<br/>class = C>, fillcolor="#e58139be"] ;
417 -> 441 ;
442 [label=<tenure &le; 0.312<br/>entropy = 0.785<br/>samples = 603<br/>value = [462, 141]<br/>class = C>, fillcolor="#e58139b1"] ;
441 -> 442 ;
443 [label=<PaymentMethod_Electronic check &le; 0.5<br/>entropy = 0.858<br/>samples = 369<br/>value = [265, 104]<br/>class = C>, fillcolor="#e581399b"] ;
442 -> 443 ;
444 [label=<tenure &le; 0.062<br/>entropy = 0.768<br/>samples = 232<br/>value = [180, 52]<br/>class = C>, fillcolor="#e58139b5"] ;
443 -> 444 ;
445 [label=<entropy = 0.998<br/>samples = 19<br/>value = [10, 9]<br/>class = C>, fillcolor="#e5813919"] ;
444 -> 445 ;
446 [label=<tenure &le; 0.299<br/>entropy = 0.726<br/>samples = 213<br/>value = [170, 43]<br/>class = C>, fillcolor="#e58139be"] ;
444 -> 446 ;
447 [label=<tenure &le; 0.229<br/>entropy = 0.71<br/>samples = 206<br/>value = [166, 40]<br/>class = C>, fillcolor="#e58139c2"] ;
446 -> 447 ;
448 [label=<tenure &le; 0.201<br/>entropy = 0.763<br/>samples = 158<br/>value = [123, 35]<br/>class = C>, fillcolor="#e58139b6"] ;
447 -> 448 ;
449 [label=<tenure &le; 0.118<br/>entropy = 0.727<br/>samples = 143<br/>value = [114, 29]<br/>class = C>, fillcolor="#e58139be"] ;
448 -> 449 ;
450 [label=<tenure &le; 0.09<br/>entropy = 0.661<br/>samples = 70<br/>value = [58, 12]<br/>class = C>, fillcolor="#e58139ca"] ;
449 -> 450 ;
451 [label=<tenure &le; 0.076<br/>entropy = 0.776<br/>samples = 35<br/>value = [27, 8]<br/>class = C>, fillcolor="#e58139b3"] ;
450 -> 451 ;
452 [label=<entropy = 0.764<br/>samples = 18<br/>value = [14, 4]<br/>class = C>, fillcolor="#e58139b6"] ;
451 -> 452 ;
453 [label=<entropy = 0.787<br/>samples = 17<br/>value = [13, 4]<br/>class = C>, fillcolor="#e58139b1"] ;
451 -> 453 ;
454 [label=<tenure &le; 0.104<br/>entropy = 0.513<br/>samples = 35<br/>value = [31, 4]<br/>class = C>, fillcolor="#e58139de"] ;
450 -> 454 ;
455 [label=<entropy = 0.485<br/>samples = 19<br/>value = [17, 2]<br/>class = C>, fillcolor="#e58139e1"] ;
454 -> 455 ;
456 [label=<entropy = 0.544<br/>samples = 16<br/>value = [14, 2]<br/>class = C>, fillcolor="#e58139db"] ;
454 -> 456 ;
457 [label=<tenure &le; 0.132<br/>entropy = 0.783<br/>samples = 73<br/>value = [56, 17]<br/>class = C>, fillcolor="#e58139b2"] ;
449 -> 457 ;
458 [label=<entropy = 0.949<br/>samples = 19<br/>value = [12, 7]<br/>class = C>, fillcolor="#e581396a"] ;
457 -> 458 ;
459 [label=<tenure &le; 0.146<br/>entropy = 0.691<br/>samples = 54<br/>value = [44, 10]<br/>class = C>, fillcolor="#e58139c5"] ;
457 -> 459 ;
460 [label=<entropy = 0.811<br/>samples = 12<br/>value = [9, 3]<br/>class = C>, fillcolor="#e58139aa"] ;
459 -> 460 ;
461 [label=<tenure &le; 0.16<br/>entropy = 0.65<br/>samples = 42<br/>value = [35, 7]<br/>class = C>, fillcolor="#e58139cc"] ;
459 -> 461 ;
462 [label=<entropy = 0.503<br/>samples = 9<br/>value = [8, 1]<br/>class = C>, fillcolor="#e58139df"] ;
461 -> 462 ;
463 [label=<tenure &le; 0.188<br/>entropy = 0.684<br/>samples = 33<br/>value = [27, 6]<br/>class = C>, fillcolor="#e58139c6"] ;
461 -> 463 ;
464 [label=<tenure &le; 0.174<br/>entropy = 0.722<br/>samples = 25<br/>value = [20, 5]<br/>class = C>, fillcolor="#e58139bf"] ;
463 -> 464 ;
465 [label=<entropy = 0.75<br/>samples = 14<br/>value = [11, 3]<br/>class = C>, fillcolor="#e58139b9"] ;
464 -> 465 ;
466 [label=<entropy = 0.684<br/>samples = 11<br/>value = [9, 2]<br/>class = C>, fillcolor="#e58139c6"] ;
464 -> 466 ;
467 [label=<entropy = 0.544<br/>samples = 8<br/>value = [7, 1]<br/>class = C>, fillcolor="#e58139db"] ;
463 -> 467 ;
468 [label=<tenure &le; 0.215<br/>entropy = 0.971<br/>samples = 15<br/>value = [9, 6]<br/>class = C>, fillcolor="#e5813955"] ;
448 -> 468 ;
469 [label=<entropy = 0.918<br/>samples = 9<br/>value = [6, 3]<br/>class = C>, fillcolor="#e581397f"] ;
468 -> 469 ;
470 [label=<entropy = 1.0<br/>samples = 6<br/>value = [3, 3]<br/>class = C>, fillcolor="#e5813900"] ;
468 -> 470 ;
471 [label=<tenure &le; 0.271<br/>entropy = 0.482<br/>samples = 48<br/>value = [43, 5]<br/>class = C>, fillcolor="#e58139e1"] ;
447 -> 471 ;
472 [label=<tenure &le; 0.243<br/>entropy = 0.414<br/>samples = 36<br/>value = [33, 3]<br/>class = C>, fillcolor="#e58139e8"] ;
471 -> 472 ;
473 [label=<entropy = 0.439<br/>samples = 11<br/>value = [10, 1]<br/>class = C>, fillcolor="#e58139e6"] ;
472 -> 473 ;
474 [label=<tenure &le; 0.257<br/>entropy = 0.402<br/>samples = 25<br/>value = [23, 2]<br/>class = C>, fillcolor="#e58139e9"] ;
472 -> 474 ;
475 [label=<entropy = 0.371<br/>samples = 14<br/>value = [13, 1]<br/>class = C>, fillcolor="#e58139eb"] ;
474 -> 475 ;
476 [label=<entropy = 0.439<br/>samples = 11<br/>value = [10, 1]<br/>class = C>, fillcolor="#e58139e6"] ;
474 -> 476 ;
477 [label=<tenure &le; 0.285<br/>entropy = 0.65<br/>samples = 12<br/>value = [10, 2]<br/>class = C>, fillcolor="#e58139cc"] ;
471 -> 477 ;
478 [label=<entropy = 0.65<br/>samples = 6<br/>value = [5, 1]<br/>class = C>, fillcolor="#e58139cc"] ;
477 -> 478 ;
479 [label=<entropy = 0.65<br/>samples = 6<br/>value = [5, 1]<br/>class = C>, fillcolor="#e58139cc"] ;
477 -> 479 ;
480 [label=<entropy = 0.985<br/>samples = 7<br/>value = [4, 3]<br/>class = C>, fillcolor="#e5813940"] ;
446 -> 480 ;
481 [label=<tenure &le; 0.104<br/>entropy = 0.958<br/>samples = 137<br/>value = [85, 52]<br/>class = C>, fillcolor="#e5813963"] ;
443 -> 481 ;
482 [label=<tenure &le; 0.076<br/>entropy = 0.854<br/>samples = 43<br/>value = [31, 12]<br/>class = C>, fillcolor="#e581399c"] ;
481 -> 482 ;
483 [label=<tenure &le; 0.062<br/>entropy = 0.954<br/>samples = 24<br/>value = [15, 9]<br/>class = C>, fillcolor="#e5813966"] ;
482 -> 483 ;
484 [label=<entropy = 0.94<br/>samples = 14<br/>value = [9, 5]<br/>class = C>, fillcolor="#e5813971"] ;
483 -> 484 ;
485 [label=<entropy = 0.971<br/>samples = 10<br/>value = [6, 4]<br/>class = C>, fillcolor="#e5813955"] ;
483 -> 485 ;
486 [label=<tenure &le; 0.09<br/>entropy = 0.629<br/>samples = 19<br/>value = [16, 3]<br/>class = C>, fillcolor="#e58139cf"] ;
482 -> 486 ;
487 [label=<entropy = 0.592<br/>samples = 7<br/>value = [6, 1]<br/>class = C>, fillcolor="#e58139d4"] ;
486 -> 487 ;
488 [label=<entropy = 0.65<br/>samples = 12<br/>value = [10, 2]<br/>class = C>, fillcolor="#e58139cc"] ;
486 -> 488 ;
489 [label=<tenure &le; 0.132<br/>entropy = 0.984<br/>samples = 94<br/>value = [54, 40]<br/>class = C>, fillcolor="#e5813942"] ;
481 -> 489 ;
490 [label=<tenure &le; 0.118<br/>entropy = 0.977<br/>samples = 17<br/>value = [7, 10]<br/>class = h>, fillcolor="#399de54d"] ;
489 -> 490 ;
491 [label=<entropy = 0.971<br/>samples = 10<br/>value = [6, 4]<br/>class = C>, fillcolor="#e5813955"] ;
490 -> 491 ;
492 [label=<entropy = 0.592<br/>samples = 7<br/>value = [1, 6]<br/>class = h>, fillcolor="#399de5d4"] ;
490 -> 492 ;
493 [label=<tenure &le; 0.188<br/>entropy = 0.965<br/>samples = 77<br/>value = [47, 30]<br/>class = C>, fillcolor="#e581395c"] ;
489 -> 493 ;
494 [label=<tenure &le; 0.174<br/>entropy = 0.885<br/>samples = 33<br/>value = [23, 10]<br/>class = C>, fillcolor="#e5813990"] ;
493 -> 494 ;
495 [label=<tenure &le; 0.146<br/>entropy = 0.863<br/>samples = 21<br/>value = [15, 6]<br/>class = C>, fillcolor="#e5813999"] ;
494 -> 495 ;
496 [label=<entropy = 0.811<br/>samples = 4<br/>value = [3, 1]<br/>class = C>, fillcolor="#e58139aa"] ;
495 -> 496 ;
497 [label=<tenure &le; 0.16<br/>entropy = 0.874<br/>samples = 17<br/>value = [12, 5]<br/>class = C>, fillcolor="#e5813995"] ;
495 -> 497 ;
498 [label=<entropy = 0.881<br/>samples = 10<br/>value = [7, 3]<br/>class = C>, fillcolor="#e5813992"] ;
497 -> 498 ;
499 [label=<entropy = 0.863<br/>samples = 7<br/>value = [5, 2]<br/>class = C>, fillcolor="#e5813999"] ;
497 -> 499 ;
500 [label=<entropy = 0.918<br/>samples = 12<br/>value = [8, 4]<br/>class = C>, fillcolor="#e581397f"] ;
494 -> 500 ;
501 [label=<tenure &le; 0.257<br/>entropy = 0.994<br/>samples = 44<br/>value = [24, 20]<br/>class = C>, fillcolor="#e581392a"] ;
493 -> 501 ;
502 [label=<tenure &le; 0.229<br/>entropy = 0.996<br/>samples = 26<br/>value = [12, 14]<br/>class = h>, fillcolor="#399de524"] ;
501 -> 502 ;
503 [label=<tenure &le; 0.201<br/>entropy = 1.0<br/>samples = 20<br/>value = [10, 10]<br/>class = C>, fillcolor="#e5813900"] ;
502 -> 503 ;
504 [label=<entropy = 0.971<br/>samples = 5<br/>value = [2, 3]<br/>class = h>, fillcolor="#399de555"] ;
503 -> 504 ;
505 [label=<tenure &le; 0.215<br/>entropy = 0.997<br/>samples = 15<br/>value = [8, 7]<br/>class = C>, fillcolor="#e5813920"] ;
503 -> 505 ;
506 [label=<entropy = 0.991<br/>samples = 9<br/>value = [5, 4]<br/>class = C>, fillcolor="#e5813933"] ;
505 -> 506 ;
507 [label=<entropy = 1.0<br/>samples = 6<br/>value = [3, 3]<br/>class = C>, fillcolor="#e5813900"] ;
505 -> 507 ;
508 [label=<tenure &le; 0.243<br/>entropy = 0.918<br/>samples = 6<br/>value = [2, 4]<br/>class = h>, fillcolor="#399de57f"] ;
502 -> 508 ;
509 [label=<entropy = 0.0<br/>samples = 1<br/>value = [0, 1]<br/>class = h>, fillcolor="#399de5ff"] ;
508 -> 509 ;
510 [label=<entropy = 0.971<br/>samples = 5<br/>value = [2, 3]<br/>class = h>, fillcolor="#399de555"] ;
508 -> 510 ;
511 [label=<tenure &le; 0.299<br/>entropy = 0.918<br/>samples = 18<br/>value = [12, 6]<br/>class = C>, fillcolor="#e581397f"] ;
501 -> 511 ;
512 [label=<tenure &le; 0.271<br/>entropy = 0.722<br/>samples = 10<br/>value = [8, 2]<br/>class = C>, fillcolor="#e58139bf"] ;
511 -> 512 ;
513 [label=<entropy = 0.811<br/>samples = 4<br/>value = [3, 1]<br/>class = C>, fillcolor="#e58139aa"] ;
512 -> 513 ;
514 [label=<tenure &le; 0.285<br/>entropy = 0.65<br/>samples = 6<br/>value = [5, 1]<br/>class = C>, fillcolor="#e58139cc"] ;
512 -> 514 ;
515 [label=<entropy = 0.0<br/>samples = 2<br/>value = [2, 0]<br/>class = C>, fillcolor="#e58139ff"] ;
514 -> 515 ;
516 [label=<entropy = 0.811<br/>samples = 4<br/>value = [3, 1]<br/>class = C>, fillcolor="#e58139aa"] ;
514 -> 516 ;
517 [label=<entropy = 1.0<br/>samples = 8<br/>value = [4, 4]<br/>class = C>, fillcolor="#e5813900"] ;
511 -> 517 ;
518 [label=<tenure &le; 0.826<br/>entropy = 0.63<br/>samples = 234<br/>value = [197, 37]<br/>class = C>, fillcolor="#e58139cf"] ;
442 -> 518 ;
519 [label=<tenure &le; 0.729<br/>entropy = 0.65<br/>samples = 222<br/>value = [185, 37]<br/>class = C>, fillcolor="#e58139cc"] ;
518 -> 519 ;
520 [label=<tenure &le; 0.618<br/>entropy = 0.616<br/>samples = 197<br/>value = [167, 30]<br/>class = C>, fillcolor="#e58139d1"] ;
519 -> 520 ;
521 [label=<tenure &le; 0.535<br/>entropy = 0.659<br/>samples = 164<br/>value = [136, 28]<br/>class = C>, fillcolor="#e58139ca"] ;
520 -> 521 ;
522 [label=<tenure &le; 0.438<br/>entropy = 0.574<br/>samples = 125<br/>value = [108, 17]<br/>class = C>, fillcolor="#e58139d7"] ;
521 -> 522 ;
523 [label=<tenure &le; 0.326<br/>entropy = 0.642<br/>samples = 92<br/>value = [77, 15]<br/>class = C>, fillcolor="#e58139cd"] ;
522 -> 523 ;
524 [label=<entropy = 0.0<br/>samples = 5<br/>value = [5, 0]<br/>class = C>, fillcolor="#e58139ff"] ;
523 -> 524 ;
525 [label=<tenure &le; 0.354<br/>entropy = 0.663<br/>samples = 87<br/>value = [72, 15]<br/>class = C>, fillcolor="#e58139ca"] ;
523 -> 525 ;
526 [label=<PaymentMethod_Electronic check &le; 0.5<br/>entropy = 0.764<br/>samples = 27<br/>value = [21, 6]<br/>class = C>, fillcolor="#e58139b6"] ;
525 -> 526 ;
527 [label=<tenure &le; 0.34<br/>entropy = 0.831<br/>samples = 19<br/>value = [14, 5]<br/>class = C>, fillcolor="#e58139a4"] ;
526 -> 527 ;
528 [label=<entropy = 0.779<br/>samples = 13<br/>value = [10, 3]<br/>class = C>, fillcolor="#e58139b3"] ;
527 -> 528 ;
529 [label=<entropy = 0.918<br/>samples = 6<br/>value = [4, 2]<br/>class = C>, fillcolor="#e581397f"] ;
527 -> 529 ;
530 [label=<tenure &le; 0.34<br/>entropy = 0.544<br/>samples = 8<br/>value = [7, 1]<br/>class = C>, fillcolor="#e58139db"] ;
526 -> 530 ;
531 [label=<entropy = 0.722<br/>samples = 5<br/>value = [4, 1]<br/>class = C>, fillcolor="#e58139bf"] ;
530 -> 531 ;
532 [label=<entropy = 0.0<br/>samples = 3<br/>value = [3, 0]<br/>class = C>, fillcolor="#e58139ff"] ;
530 -> 532 ;
533 [label=<tenure &le; 0.396<br/>entropy = 0.61<br/>samples = 60<br/>value = [51, 9]<br/>class = C>, fillcolor="#e58139d2"] ;
525 -> 533 ;
534 [label=<tenure &le; 0.382<br/>entropy = 0.459<br/>samples = 31<br/>value = [28, 3]<br/>class = C>, fillcolor="#e58139e4"] ;
533 -> 534 ;
535 [label=<tenure &le; 0.368<br/>entropy = 0.592<br/>samples = 21<br/>value = [18, 3]<br/>class = C>, fillcolor="#e58139d4"] ;
534 -> 535 ;
536 [label=<PaymentMethod_Electronic check &le; 0.5<br/>entropy = 0.469<br/>samples = 10<br/>value = [9, 1]<br/>class = C>, fillcolor="#e58139e3"] ;
535 -> 536 ;
537 [label=<entropy = 0.0<br/>samples = 6<br/>value = [6, 0]<br/>class = C>, fillcolor="#e58139ff"] ;
536 -> 537 ;
538 [label=<entropy = 0.811<br/>samples = 4<br/>value = [3, 1]<br/>class = C>, fillcolor="#e58139aa"] ;
536 -> 538 ;
539 [label=<PaymentMethod_Electronic check &le; 0.5<br/>entropy = 0.684<br/>samples = 11<br/>value = [9, 2]<br/>class = C>, fillcolor="#e58139c6"] ;
535 -> 539 ;
540 [label=<entropy = 0.811<br/>samples = 8<br/>value = [6, 2]<br/>class = C>, fillcolor="#e58139aa"] ;
539 -> 540 ;
541 [label=<entropy = 0.0<br/>samples = 3<br/>value = [3, 0]<br/>class = C>, fillcolor="#e58139ff"] ;
539 -> 541 ;
542 [label=<entropy = 0.0<br/>samples = 10<br/>value = [10, 0]<br/>class = C>, fillcolor="#e58139ff"] ;
534 -> 542 ;
543 [label=<PaymentMethod_Electronic check &le; 0.5<br/>entropy = 0.736<br/>samples = 29<br/>value = [23, 6]<br/>class = C>, fillcolor="#e58139bc"] ;
533 -> 543 ;
544 [label=<tenure &le; 0.41<br/>entropy = 0.684<br/>samples = 22<br/>value = [18, 4]<br/>class = C>, fillcolor="#e58139c6"] ;
543 -> 544 ;
545 [label=<entropy = 0.544<br/>samples = 8<br/>value = [7, 1]<br/>class = C>, fillcolor="#e58139db"] ;
544 -> 545 ;
546 [label=<tenure &le; 0.424<br/>entropy = 0.75<br/>samples = 14<br/>value = [11, 3]<br/>class = C>, fillcolor="#e58139b9"] ;
544 -> 546 ;
547 [label=<entropy = 0.863<br/>samples = 7<br/>value = [5, 2]<br/>class = C>, fillcolor="#e5813999"] ;
546 -> 547 ;
548 [label=<entropy = 0.592<br/>samples = 7<br/>value = [6, 1]<br/>class = C>, fillcolor="#e58139d4"] ;
546 -> 548 ;
549 [label=<tenure &le; 0.424<br/>entropy = 0.863<br/>samples = 7<br/>value = [5, 2]<br/>class = C>, fillcolor="#e5813999"] ;
543 -> 549 ;
550 [label=<tenure &le; 0.41<br/>entropy = 0.722<br/>samples = 5<br/>value = [4, 1]<br/>class = C>, fillcolor="#e58139bf"] ;
549 -> 550 ;
551 [label=<entropy = 0.918<br/>samples = 3<br/>value = [2, 1]<br/>class = C>, fillcolor="#e581397f"] ;
550 -> 551 ;
552 [label=<entropy = 0.0<br/>samples = 2<br/>value = [2, 0]<br/>class = C>, fillcolor="#e58139ff"] ;
550 -> 552 ;
553 [label=<entropy = 1.0<br/>samples = 2<br/>value = [1, 1]<br/>class = C>, fillcolor="#e5813900"] ;
549 -> 553 ;
554 [label=<tenure &le; 0.465<br/>entropy = 0.33<br/>samples = 33<br/>value = [31, 2]<br/>class = C>, fillcolor="#e58139ef"] ;
522 -> 554 ;
555 [label=<entropy = 0.0<br/>samples = 11<br/>value = [11, 0]<br/>class = C>, fillcolor="#e58139ff"] ;
554 -> 555 ;
556 [label=<tenure &le; 0.521<br/>entropy = 0.439<br/>samples = 22<br/>value = [20, 2]<br/>class = C>, fillcolor="#e58139e6"] ;
554 -> 556 ;
557 [label=<tenure &le; 0.507<br/>entropy = 0.503<br/>samples = 18<br/>value = [16, 2]<br/>class = C>, fillcolor="#e58139df"] ;
556 -> 557 ;
558 [label=<PaymentMethod_Electronic check &le; 0.5<br/>entropy = 0.371<br/>samples = 14<br/>value = [13, 1]<br/>class = C>, fillcolor="#e58139eb"] ;
557 -> 558 ;
559 [label=<entropy = 0.0<br/>samples = 7<br/>value = [7, 0]<br/>class = C>, fillcolor="#e58139ff"] ;
558 -> 559 ;
560 [label=<tenure &le; 0.479<br/>entropy = 0.592<br/>samples = 7<br/>value = [6, 1]<br/>class = C>, fillcolor="#e58139d4"] ;
558 -> 560 ;
561 [label=<entropy = 0.811<br/>samples = 4<br/>value = [3, 1]<br/>class = C>, fillcolor="#e58139aa"] ;
560 -> 561 ;
562 [label=<entropy = 0.0<br/>samples = 3<br/>value = [3, 0]<br/>class = C>, fillcolor="#e58139ff"] ;
560 -> 562 ;
563 [label=<PaymentMethod_Electronic check &le; 0.5<br/>entropy = 0.811<br/>samples = 4<br/>value = [3, 1]<br/>class = C>, fillcolor="#e58139aa"] ;
557 -> 563 ;
564 [label=<entropy = 0.918<br/>samples = 3<br/>value = [2, 1]<br/>class = C>, fillcolor="#e581397f"] ;
563 -> 564 ;
565 [label=<entropy = 0.0<br/>samples = 1<br/>value = [1, 0]<br/>class = C>, fillcolor="#e58139ff"] ;
563 -> 565 ;
566 [label=<entropy = 0.0<br/>samples = 4<br/>value = [4, 0]<br/>class = C>, fillcolor="#e58139ff"] ;
556 -> 566 ;
567 [label=<tenure &le; 0.549<br/>entropy = 0.858<br/>samples = 39<br/>value = [28, 11]<br/>class = C>, fillcolor="#e581399b"] ;
521 -> 567 ;
568 [label=<PaymentMethod_Electronic check &le; 0.5<br/>entropy = 0.985<br/>samples = 7<br/>value = [3, 4]<br/>class = h>, fillcolor="#399de540"] ;
567 -> 568 ;
569 [label=<entropy = 1.0<br/>samples = 4<br/>value = [2, 2]<br/>class = C>, fillcolor="#e5813900"] ;
568 -> 569 ;
570 [label=<entropy = 0.918<br/>samples = 3<br/>value = [1, 2]<br/>class = h>, fillcolor="#399de57f"] ;
568 -> 570 ;
571 [label=<PaymentMethod_Electronic check &le; 0.5<br/>entropy = 0.758<br/>samples = 32<br/>value = [25, 7]<br/>class = C>, fillcolor="#e58139b8"] ;
567 -> 571 ;
572 [label=<tenure &le; 0.576<br/>entropy = 0.592<br/>samples = 21<br/>value = [18, 3]<br/>class = C>, fillcolor="#e58139d4"] ;
571 -> 572 ;
573 [label=<tenure &le; 0.562<br/>entropy = 0.764<br/>samples = 9<br/>value = [7, 2]<br/>class = C>, fillcolor="#e58139b6"] ;
572 -> 573 ;
574 [label=<entropy = 0.722<br/>samples = 5<br/>value = [4, 1]<br/>class = C>, fillcolor="#e58139bf"] ;
573 -> 574 ;
575 [label=<entropy = 0.811<br/>samples = 4<br/>value = [3, 1]<br/>class = C>, fillcolor="#e58139aa"] ;
573 -> 575 ;
576 [label=<tenure &le; 0.59<br/>entropy = 0.414<br/>samples = 12<br/>value = [11, 1]<br/>class = C>, fillcolor="#e58139e8"] ;
572 -> 576 ;
577 [label=<entropy = 0.0<br/>samples = 5<br/>value = [5, 0]<br/>class = C>, fillcolor="#e58139ff"] ;
576 -> 577 ;
578 [label=<tenure &le; 0.604<br/>entropy = 0.592<br/>samples = 7<br/>value = [6, 1]<br/>class = C>, fillcolor="#e58139d4"] ;
576 -> 578 ;
579 [label=<entropy = 0.722<br/>samples = 5<br/>value = [4, 1]<br/>class = C>, fillcolor="#e58139bf"] ;
578 -> 579 ;
580 [label=<entropy = 0.0<br/>samples = 2<br/>value = [2, 0]<br/>class = C>, fillcolor="#e58139ff"] ;
578 -> 580 ;
581 [label=<tenure &le; 0.604<br/>entropy = 0.946<br/>samples = 11<br/>value = [7, 4]<br/>class = C>, fillcolor="#e581396d"] ;
571 -> 581 ;
582 [label=<tenure &le; 0.59<br/>entropy = 0.881<br/>samples = 10<br/>value = [7, 3]<br/>class = C>, fillcolor="#e5813992"] ;
581 -> 582 ;
583 [label=<tenure &le; 0.562<br/>entropy = 0.954<br/>samples = 8<br/>value = [5, 3]<br/>class = C>, fillcolor="#e5813966"] ;
582 -> 583 ;
584 [label=<entropy = 1.0<br/>samples = 4<br/>value = [2, 2]<br/>class = C>, fillcolor="#e5813900"] ;
583 -> 584 ;
585 [label=<tenure &le; 0.576<br/>entropy = 0.811<br/>samples = 4<br/>value = [3, 1]<br/>class = C>, fillcolor="#e58139aa"] ;
583 -> 585 ;
586 [label=<entropy = 0.0<br/>samples = 1<br/>value = [1, 0]<br/>class = C>, fillcolor="#e58139ff"] ;
585 -> 586 ;
587 [label=<entropy = 0.918<br/>samples = 3<br/>value = [2, 1]<br/>class = C>, fillcolor="#e581397f"] ;
585 -> 587 ;
588 [label=<entropy = 0.0<br/>samples = 2<br/>value = [2, 0]<br/>class = C>, fillcolor="#e58139ff"] ;
582 -> 588 ;
589 [label=<entropy = 0.0<br/>samples = 1<br/>value = [0, 1]<br/>class = h>, fillcolor="#399de5ff"] ;
581 -> 589 ;
590 [label=<tenure &le; 0.66<br/>entropy = 0.33<br/>samples = 33<br/>value = [31, 2]<br/>class = C>, fillcolor="#e58139ef"] ;
520 -> 590 ;
591 [label=<entropy = 0.0<br/>samples = 14<br/>value = [14, 0]<br/>class = C>, fillcolor="#e58139ff"] ;
590 -> 591 ;
592 [label=<tenure &le; 0.674<br/>entropy = 0.485<br/>samples = 19<br/>value = [17, 2]<br/>class = C>, fillcolor="#e58139e1"] ;
590 -> 592 ;
593 [label=<PaymentMethod_Electronic check &le; 0.5<br/>entropy = 0.918<br/>samples = 3<br/>value = [2, 1]<br/>class = C>, fillcolor="#e581397f"] ;
592 -> 593 ;
594 [label=<entropy = 1.0<br/>samples = 2<br/>value = [1, 1]<br/>class = C>, fillcolor="#e5813900"] ;
593 -> 594 ;
595 [label=<entropy = 0.0<br/>samples = 1<br/>value = [1, 0]<br/>class = C>, fillcolor="#e58139ff"] ;
593 -> 595 ;
596 [label=<tenure &le; 0.715<br/>entropy = 0.337<br/>samples = 16<br/>value = [15, 1]<br/>class = C>, fillcolor="#e58139ee"] ;
592 -> 596 ;
597 [label=<entropy = 0.0<br/>samples = 11<br/>value = [11, 0]<br/>class = C>, fillcolor="#e58139ff"] ;
596 -> 597 ;
598 [label=<PaymentMethod_Electronic check &le; 0.5<br/>entropy = 0.722<br/>samples = 5<br/>value = [4, 1]<br/>class = C>, fillcolor="#e58139bf"] ;
596 -> 598 ;
599 [label=<entropy = 0.0<br/>samples = 2<br/>value = [2, 0]<br/>class = C>, fillcolor="#e58139ff"] ;
598 -> 599 ;
600 [label=<entropy = 0.918<br/>samples = 3<br/>value = [2, 1]<br/>class = C>, fillcolor="#e581397f"] ;
598 -> 600 ;
601 [label=<tenure &le; 0.785<br/>entropy = 0.855<br/>samples = 25<br/>value = [18, 7]<br/>class = C>, fillcolor="#e581399c"] ;
519 -> 601 ;
602 [label=<tenure &le; 0.771<br/>entropy = 0.779<br/>samples = 13<br/>value = [10, 3]<br/>class = C>, fillcolor="#e58139b3"] ;
601 -> 602 ;
603 [label=<tenure &le; 0.743<br/>entropy = 0.811<br/>samples = 12<br/>value = [9, 3]<br/>class = C>, fillcolor="#e58139aa"] ;
602 -> 603 ;
604 [label=<PaymentMethod_Electronic check &le; 0.5<br/>entropy = 0.918<br/>samples = 3<br/>value = [2, 1]<br/>class = C>, fillcolor="#e581397f"] ;
603 -> 604 ;
605 [label=<entropy = 0.0<br/>samples = 1<br/>value = [1, 0]<br/>class = C>, fillcolor="#e58139ff"] ;
604 -> 605 ;
606 [label=<entropy = 1.0<br/>samples = 2<br/>value = [1, 1]<br/>class = C>, fillcolor="#e5813900"] ;
604 -> 606 ;
607 [label=<PaymentMethod_Electronic check &le; 0.5<br/>entropy = 0.764<br/>samples = 9<br/>value = [7, 2]<br/>class = C>, fillcolor="#e58139b6"] ;
603 -> 607 ;
608 [label=<tenure &le; 0.757<br/>entropy = 0.918<br/>samples = 6<br/>value = [4, 2]<br/>class = C>, fillcolor="#e581397f"] ;
607 -> 608 ;
609 [label=<entropy = 0.918<br/>samples = 3<br/>value = [2, 1]<br/>class = C>, fillcolor="#e581397f"] ;
608 -> 609 ;
610 [label=<entropy = 0.918<br/>samples = 3<br/>value = [2, 1]<br/>class = C>, fillcolor="#e581397f"] ;
608 -> 610 ;
611 [label=<entropy = 0.0<br/>samples = 3<br/>value = [3, 0]<br/>class = C>, fillcolor="#e58139ff"] ;
607 -> 611 ;
612 [label=<entropy = 0.0<br/>samples = 1<br/>value = [1, 0]<br/>class = C>, fillcolor="#e58139ff"] ;
602 -> 612 ;
613 [label=<tenure &le; 0.812<br/>entropy = 0.918<br/>samples = 12<br/>value = [8, 4]<br/>class = C>, fillcolor="#e581397f"] ;
601 -> 613 ;
614 [label=<PaymentMethod_Electronic check &le; 0.5<br/>entropy = 0.954<br/>samples = 8<br/>value = [5, 3]<br/>class = C>, fillcolor="#e5813966"] ;
613 -> 614 ;
615 [label=<entropy = 0.0<br/>samples = 3<br/>value = [3, 0]<br/>class = C>, fillcolor="#e58139ff"] ;
614 -> 615 ;
616 [label=<tenure &le; 0.799<br/>entropy = 0.971<br/>samples = 5<br/>value = [2, 3]<br/>class = h>, fillcolor="#399de555"] ;
614 -> 616 ;
617 [label=<entropy = 1.0<br/>samples = 4<br/>value = [2, 2]<br/>class = C>, fillcolor="#e5813900"] ;
616 -> 617 ;
618 [label=<entropy = 0.0<br/>samples = 1<br/>value = [0, 1]<br/>class = h>, fillcolor="#399de5ff"] ;
616 -> 618 ;
619 [label=<PaymentMethod_Electronic check &le; 0.5<br/>entropy = 0.811<br/>samples = 4<br/>value = [3, 1]<br/>class = C>, fillcolor="#e58139aa"] ;
613 -> 619 ;
620 [label=<entropy = 0.0<br/>samples = 1<br/>value = [0, 1]<br/>class = h>, fillcolor="#399de5ff"] ;
619 -> 620 ;
621 [label=<entropy = 0.0<br/>samples = 3<br/>value = [3, 0]<br/>class = C>, fillcolor="#e58139ff"] ;
619 -> 621 ;
622 [label=<entropy = 0.0<br/>samples = 12<br/>value = [12, 0]<br/>class = C>, fillcolor="#e58139ff"] ;
518 -> 622 ;
623 [label=<tenure &le; 0.243<br/>entropy = 0.508<br/>samples = 204<br/>value = [181, 23]<br/>class = C>, fillcolor="#e58139df"] ;
441 -> 623 ;
624 [label=<tenure &le; 0.201<br/>entropy = 0.613<br/>samples = 139<br/>value = [118, 21]<br/>class = C>, fillcolor="#e58139d2"] ;
623 -> 624 ;
625 [label=<tenure &le; 0.174<br/>entropy = 0.573<br/>samples = 118<br/>value = [102, 16]<br/>class = C>, fillcolor="#e58139d7"] ;
624 -> 625 ;
626 [label=<tenure &le; 0.146<br/>entropy = 0.605<br/>samples = 108<br/>value = [92, 16]<br/>class = C>, fillcolor="#e58139d3"] ;
625 -> 626 ;
627 [label=<tenure &le; 0.132<br/>entropy = 0.567<br/>samples = 90<br/>value = [78, 12]<br/>class = C>, fillcolor="#e58139d8"] ;
626 -> 627 ;
628 [label=<PaymentMethod_Electronic check &le; 0.5<br/>entropy = 0.629<br/>samples = 76<br/>value = [64, 12]<br/>class = C>, fillcolor="#e58139cf"] ;
627 -> 628 ;
629 [label=<tenure &le; 0.076<br/>entropy = 0.586<br/>samples = 71<br/>value = [61, 10]<br/>class = C>, fillcolor="#e58139d5"] ;
628 -> 629 ;
630 [label=<tenure &le; 0.062<br/>entropy = 0.672<br/>samples = 34<br/>value = [28, 6]<br/>class = C>, fillcolor="#e58139c8"] ;
629 -> 630 ;
631 [label=<entropy = 0.592<br/>samples = 21<br/>value = [18, 3]<br/>class = C>, fillcolor="#e58139d4"] ;
630 -> 631 ;
632 [label=<entropy = 0.779<br/>samples = 13<br/>value = [10, 3]<br/>class = C>, fillcolor="#e58139b3"] ;
630 -> 632 ;
633 [label=<tenure &le; 0.104<br/>entropy = 0.494<br/>samples = 37<br/>value = [33, 4]<br/>class = C>, fillcolor="#e58139e0"] ;
629 -> 633 ;
634 [label=<tenure &le; 0.09<br/>entropy = 0.439<br/>samples = 22<br/>value = [20, 2]<br/>class = C>, fillcolor="#e58139e6"] ;
633 -> 634 ;
635 [label=<entropy = 0.439<br/>samples = 11<br/>value = [10, 1]<br/>class = C>, fillcolor="#e58139e6"] ;
634 -> 635 ;
636 [label=<entropy = 0.439<br/>samples = 11<br/>value = [10, 1]<br/>class = C>, fillcolor="#e58139e6"] ;
634 -> 636 ;
637 [label=<tenure &le; 0.118<br/>entropy = 0.567<br/>samples = 15<br/>value = [13, 2]<br/>class = C>, fillcolor="#e58139d8"] ;
633 -> 637 ;
638 [label=<entropy = 0.592<br/>samples = 7<br/>value = [6, 1]<br/>class = C>, fillcolor="#e58139d4"] ;
637 -> 638 ;
639 [label=<entropy = 0.544<br/>samples = 8<br/>value = [7, 1]<br/>class = C>, fillcolor="#e58139db"] ;
637 -> 639 ;
640 [label=<tenure &le; 0.076<br/>entropy = 0.971<br/>samples = 5<br/>value = [3, 2]<br/>class = C>, fillcolor="#e5813955"] ;
628 -> 640 ;
641 [label=<entropy = 0.0<br/>samples = 2<br/>value = [2, 0]<br/>class = C>, fillcolor="#e58139ff"] ;
640 -> 641 ;
642 [label=<tenure &le; 0.118<br/>entropy = 0.918<br/>samples = 3<br/>value = [1, 2]<br/>class = h>, fillcolor="#399de57f"] ;
640 -> 642 ;
643 [label=<entropy = 0.0<br/>samples = 2<br/>value = [0, 2]<br/>class = h>, fillcolor="#399de5ff"] ;
642 -> 643 ;
644 [label=<entropy = 0.0<br/>samples = 1<br/>value = [1, 0]<br/>class = C>, fillcolor="#e58139ff"] ;
642 -> 644 ;
645 [label=<entropy = 0.0<br/>samples = 14<br/>value = [14, 0]<br/>class = C>, fillcolor="#e58139ff"] ;
627 -> 645 ;
646 [label=<tenure &le; 0.16<br/>entropy = 0.764<br/>samples = 18<br/>value = [14, 4]<br/>class = C>, fillcolor="#e58139b6"] ;
626 -> 646 ;
647 [label=<entropy = 0.954<br/>samples = 8<br/>value = [5, 3]<br/>class = C>, fillcolor="#e5813966"] ;
646 -> 647 ;
648 [label=<PaymentMethod_Electronic check &le; 0.5<br/>entropy = 0.469<br/>samples = 10<br/>value = [9, 1]<br/>class = C>, fillcolor="#e58139e3"] ;
646 -> 648 ;
649 [label=<entropy = 0.544<br/>samples = 8<br/>value = [7, 1]<br/>class = C>, fillcolor="#e58139db"] ;
648 -> 649 ;
650 [label=<entropy = 0.0<br/>samples = 2<br/>value = [2, 0]<br/>class = C>, fillcolor="#e58139ff"] ;
648 -> 650 ;
651 [label=<entropy = 0.0<br/>samples = 10<br/>value = [10, 0]<br/>class = C>, fillcolor="#e58139ff"] ;
625 -> 651 ;
652 [label=<tenure &le; 0.215<br/>entropy = 0.792<br/>samples = 21<br/>value = [16, 5]<br/>class = C>, fillcolor="#e58139af"] ;
624 -> 652 ;
653 [label=<PaymentMethod_Electronic check &le; 0.5<br/>entropy = 0.881<br/>samples = 10<br/>value = [7, 3]<br/>class = C>, fillcolor="#e5813992"] ;
652 -> 653 ;
654 [label=<entropy = 0.918<br/>samples = 6<br/>value = [4, 2]<br/>class = C>, fillcolor="#e581397f"] ;
653 -> 654 ;
655 [label=<entropy = 0.811<br/>samples = 4<br/>value = [3, 1]<br/>class = C>, fillcolor="#e58139aa"] ;
653 -> 655 ;
656 [label=<PaymentMethod_Electronic check &le; 0.5<br/>entropy = 0.684<br/>samples = 11<br/>value = [9, 2]<br/>class = C>, fillcolor="#e58139c6"] ;
652 -> 656 ;
657 [label=<tenure &le; 0.229<br/>entropy = 0.722<br/>samples = 10<br/>value = [8, 2]<br/>class = C>, fillcolor="#e58139bf"] ;
656 -> 657 ;
658 [label=<entropy = 0.65<br/>samples = 6<br/>value = [5, 1]<br/>class = C>, fillcolor="#e58139cc"] ;
657 -> 658 ;
659 [label=<entropy = 0.811<br/>samples = 4<br/>value = [3, 1]<br/>class = C>, fillcolor="#e58139aa"] ;
657 -> 659 ;
660 [label=<entropy = 0.0<br/>samples = 1<br/>value = [1, 0]<br/>class = C>, fillcolor="#e58139ff"] ;
656 -> 660 ;
661 [label=<tenure &le; 0.75<br/>entropy = 0.198<br/>samples = 65<br/>value = [63, 2]<br/>class = C>, fillcolor="#e58139f7"] ;
623 -> 661 ;
662 [label=<tenure &le; 0.41<br/>entropy = 0.116<br/>samples = 64<br/>value = [63, 1]<br/>class = C>, fillcolor="#e58139fb"] ;
661 -> 662 ;
663 [label=<entropy = 0.0<br/>samples = 39<br/>value = [39, 0]<br/>class = C>, fillcolor="#e58139ff"] ;
662 -> 663 ;
664 [label=<tenure &le; 0.431<br/>entropy = 0.242<br/>samples = 25<br/>value = [24, 1]<br/>class = C>, fillcolor="#e58139f4"] ;
662 -> 664 ;
665 [label=<entropy = 0.0<br/>samples = 1<br/>value = [0, 1]<br/>class = h>, fillcolor="#399de5ff"] ;
664 -> 665 ;
666 [label=<entropy = 0.0<br/>samples = 24<br/>value = [24, 0]<br/>class = C>, fillcolor="#e58139ff"] ;
664 -> 666 ;
667 [label=<entropy = 0.0<br/>samples = 1<br/>value = [0, 1]<br/>class = h>, fillcolor="#399de5ff"] ;
661 -> 667 ;
668 [label=<tenure &le; 0.188<br/>entropy = 0.993<br/>samples = 1511<br/>value = [681, 830]<br/>class = h>, fillcolor="#399de52e"] ;
416 -> 668 ;
669 [label=<tenure &le; 0.021<br/>entropy = 0.867<br/>samples = 679<br/>value = [196, 483]<br/>class = h>, fillcolor="#399de598"] ;
668 -> 669 ;
670 [label=<PaymentMethod_Electronic check &le; 0.5<br/>entropy = 0.563<br/>samples = 174<br/>value = [23, 151]<br/>class = h>, fillcolor="#399de5d8"] ;
669 -> 670 ;
671 [label=<entropy = 0.527<br/>samples = 42<br/>value = [5, 37]<br/>class = h>, fillcolor="#399de5dd"] ;
670 -> 671 ;
672 [label=<entropy = 0.575<br/>samples = 132<br/>value = [18, 114]<br/>class = h>, fillcolor="#399de5d7"] ;
670 -> 672 ;
673 [label=<tenure &le; 0.118<br/>entropy = 0.927<br/>samples = 505<br/>value = [173, 332]<br/>class = h>, fillcolor="#399de57a"] ;
669 -> 673 ;
674 [label=<tenure &le; 0.035<br/>entropy = 0.907<br/>samples = 347<br/>value = [112, 235]<br/>class = h>, fillcolor="#399de585"] ;
673 -> 674 ;
675 [label=<PaymentMethod_Electronic check &le; 0.5<br/>entropy = 0.878<br/>samples = 74<br/>value = [22, 52]<br/>class = h>, fillcolor="#399de593"] ;
674 -> 675 ;
676 [label=<entropy = 0.881<br/>samples = 20<br/>value = [6, 14]<br/>class = h>, fillcolor="#399de592"] ;
675 -> 676 ;
677 [label=<entropy = 0.877<br/>samples = 54<br/>value = [16, 38]<br/>class = h>, fillcolor="#399de594"] ;
675 -> 677 ;
678 [label=<tenure &le; 0.049<br/>entropy = 0.915<br/>samples = 273<br/>value = [90, 183]<br/>class = h>, fillcolor="#399de582"] ;
674 -> 678 ;
679 [label=<PaymentMethod_Electronic check &le; 0.5<br/>entropy = 0.956<br/>samples = 61<br/>value = [23, 38]<br/>class = h>, fillcolor="#399de565"] ;
678 -> 679 ;
680 [label=<entropy = 0.982<br/>samples = 19<br/>value = [8, 11]<br/>class = h>, fillcolor="#399de546"] ;
679 -> 680 ;
681 [label=<entropy = 0.94<br/>samples = 42<br/>value = [15, 27]<br/>class = h>, fillcolor="#399de571"] ;
679 -> 681 ;
682 [label=<tenure &le; 0.062<br/>entropy = 0.9<br/>samples = 212<br/>value = [67, 145]<br/>class = h>, fillcolor="#399de589"] ;
678 -> 682 ;
683 [label=<PaymentMethod_Electronic check &le; 0.5<br/>entropy = 0.851<br/>samples = 47<br/>value = [13, 34]<br/>class = h>, fillcolor="#399de59e"] ;
682 -> 683 ;
684 [label=<entropy = 0.852<br/>samples = 18<br/>value = [5, 13]<br/>class = h>, fillcolor="#399de59d"] ;
683 -> 684 ;
685 [label=<entropy = 0.85<br/>samples = 29<br/>value = [8, 21]<br/>class = h>, fillcolor="#399de59e"] ;
683 -> 685 ;
686 [label=<PaymentMethod_Electronic check &le; 0.5<br/>entropy = 0.912<br/>samples = 165<br/>value = [54, 111]<br/>class = h>, fillcolor="#399de583"] ;
682 -> 686 ;
687 [label=<tenure &le; 0.104<br/>entropy = 0.889<br/>samples = 62<br/>value = [19, 43]<br/>class = h>, fillcolor="#399de58e"] ;
686 -> 687 ;
688 [label=<tenure &le; 0.09<br/>entropy = 0.82<br/>samples = 47<br/>value = [12, 35]<br/>class = h>, fillcolor="#399de5a8"] ;
687 -> 688 ;
689 [label=<tenure &le; 0.076<br/>entropy = 0.811<br/>samples = 28<br/>value = [7, 21]<br/>class = h>, fillcolor="#399de5aa"] ;
688 -> 689 ;
690 [label=<entropy = 0.811<br/>samples = 16<br/>value = [4, 12]<br/>class = h>, fillcolor="#399de5aa"] ;
689 -> 690 ;
691 [label=<entropy = 0.811<br/>samples = 12<br/>value = [3, 9]<br/>class = h>, fillcolor="#399de5aa"] ;
689 -> 691 ;
692 [label=<entropy = 0.831<br/>samples = 19<br/>value = [5, 14]<br/>class = h>, fillcolor="#399de5a4"] ;
688 -> 692 ;
693 [label=<entropy = 0.997<br/>samples = 15<br/>value = [7, 8]<br/>class = h>, fillcolor="#399de520"] ;
687 -> 693 ;
694 [label=<tenure &le; 0.104<br/>entropy = 0.925<br/>samples = 103<br/>value = [35, 68]<br/>class = h>, fillcolor="#399de57c"] ;
686 -> 694 ;
695 [label=<tenure &le; 0.09<br/>entropy = 0.942<br/>samples = 78<br/>value = [28, 50]<br/>class = h>, fillcolor="#399de570"] ;
694 -> 695 ;
696 [label=<tenure &le; 0.076<br/>entropy = 0.931<br/>samples = 52<br/>value = [18, 34]<br/>class = h>, fillcolor="#399de578"] ;
695 -> 696 ;
697 [label=<entropy = 0.94<br/>samples = 28<br/>value = [10, 18]<br/>class = h>, fillcolor="#399de571"] ;
696 -> 697 ;
698 [label=<entropy = 0.918<br/>samples = 24<br/>value = [8, 16]<br/>class = h>, fillcolor="#399de57f"] ;
696 -> 698 ;
699 [label=<entropy = 0.961<br/>samples = 26<br/>value = [10, 16]<br/>class = h>, fillcolor="#399de560"] ;
695 -> 699 ;
700 [label=<entropy = 0.855<br/>samples = 25<br/>value = [7, 18]<br/>class = h>, fillcolor="#399de59c"] ;
694 -> 700 ;
701 [label=<tenure &le; 0.132<br/>entropy = 0.962<br/>samples = 158<br/>value = [61, 97]<br/>class = h>, fillcolor="#399de55f"] ;
673 -> 701 ;
702 [label=<PaymentMethod_Electronic check &le; 0.5<br/>entropy = 1.0<br/>samples = 50<br/>value = [25, 25]<br/>class = C>, fillcolor="#e5813900"] ;
701 -> 702 ;
703 [label=<entropy = 0.971<br/>samples = 15<br/>value = [6, 9]<br/>class = h>, fillcolor="#399de555"] ;
702 -> 703 ;
704 [label=<entropy = 0.995<br/>samples = 35<br/>value = [19, 16]<br/>class = C>, fillcolor="#e5813928"] ;
702 -> 704 ;
705 [label=<PaymentMethod_Electronic check &le; 0.5<br/>entropy = 0.918<br/>samples = 108<br/>value = [36, 72]<br/>class = h>, fillcolor="#399de57f"] ;
701 -> 705 ;
706 [label=<tenure &le; 0.146<br/>entropy = 0.995<br/>samples = 35<br/>value = [16, 19]<br/>class = h>, fillcolor="#399de528"] ;
705 -> 706 ;
707 [label=<entropy = 0.881<br/>samples = 10<br/>value = [3, 7]<br/>class = h>, fillcolor="#399de592"] ;
706 -> 707 ;
708 [label=<tenure &le; 0.174<br/>entropy = 0.999<br/>samples = 25<br/>value = [13, 12]<br/>class = C>, fillcolor="#e5813914"] ;
706 -> 708 ;
709 [label=<tenure &le; 0.16<br/>entropy = 0.998<br/>samples = 17<br/>value = [8, 9]<br/>class = h>, fillcolor="#399de51c"] ;
708 -> 709 ;
710 [label=<entropy = 0.991<br/>samples = 9<br/>value = [5, 4]<br/>class = C>, fillcolor="#e5813933"] ;
709 -> 710 ;
711 [label=<entropy = 0.954<br/>samples = 8<br/>value = [3, 5]<br/>class = h>, fillcolor="#399de566"] ;
709 -> 711 ;
712 [label=<entropy = 0.954<br/>samples = 8<br/>value = [5, 3]<br/>class = C>, fillcolor="#e5813966"] ;
708 -> 712 ;
713 [label=<tenure &le; 0.146<br/>entropy = 0.847<br/>samples = 73<br/>value = [20, 53]<br/>class = h>, fillcolor="#399de59f"] ;
705 -> 713 ;
714 [label=<entropy = 0.706<br/>samples = 26<br/>value = [5, 21]<br/>class = h>, fillcolor="#399de5c2"] ;
713 -> 714 ;
715 [label=<tenure &le; 0.174<br/>entropy = 0.903<br/>samples = 47<br/>value = [15, 32]<br/>class = h>, fillcolor="#399de587"] ;
713 -> 715 ;
716 [label=<tenure &le; 0.16<br/>entropy = 0.971<br/>samples = 30<br/>value = [12, 18]<br/>class = h>, fillcolor="#399de555"] ;
715 -> 716 ;
717 [label=<entropy = 0.989<br/>samples = 16<br/>value = [7, 9]<br/>class = h>, fillcolor="#399de539"] ;
716 -> 717 ;
718 [label=<entropy = 0.94<br/>samples = 14<br/>value = [5, 9]<br/>class = h>, fillcolor="#399de571"] ;
716 -> 718 ;
719 [label=<entropy = 0.672<br/>samples = 17<br/>value = [3, 14]<br/>class = h>, fillcolor="#399de5c8"] ;
715 -> 719 ;
720 [label=<PaymentMethod_Electronic check &le; 0.5<br/>entropy = 0.98<br/>samples = 832<br/>value = [485, 347]<br/>class = C>, fillcolor="#e5813949"] ;
668 -> 720 ;
721 [label=<tenure &le; 0.604<br/>entropy = 0.907<br/>samples = 360<br/>value = [244, 116]<br/>class = C>, fillcolor="#e5813986"] ;
720 -> 721 ;
722 [label=<tenure &le; 0.562<br/>entropy = 0.957<br/>samples = 243<br/>value = [151, 92]<br/>class = C>, fillcolor="#e5813964"] ;
721 -> 722 ;
723 [label=<tenure &le; 0.243<br/>entropy = 0.949<br/>samples = 228<br/>value = [144, 84]<br/>class = C>, fillcolor="#e581396a"] ;
722 -> 723 ;
724 [label=<tenure &le; 0.215<br/>entropy = 0.993<br/>samples = 40<br/>value = [22, 18]<br/>class = C>, fillcolor="#e581392e"] ;
723 -> 724 ;
725 [label=<tenure &le; 0.201<br/>entropy = 1.0<br/>samples = 16<br/>value = [8, 8]<br/>class = C>, fillcolor="#e5813900"] ;
724 -> 725 ;
726 [label=<entropy = 1.0<br/>samples = 4<br/>value = [2, 2]<br/>class = C>, fillcolor="#e5813900"] ;
725 -> 726 ;
727 [label=<entropy = 1.0<br/>samples = 12<br/>value = [6, 6]<br/>class = C>, fillcolor="#e5813900"] ;
725 -> 727 ;
728 [label=<tenure &le; 0.229<br/>entropy = 0.98<br/>samples = 24<br/>value = [14, 10]<br/>class = C>, fillcolor="#e5813949"] ;
724 -> 728 ;
729 [label=<entropy = 0.961<br/>samples = 13<br/>value = [8, 5]<br/>class = C>, fillcolor="#e5813960"] ;
728 -> 729 ;
730 [label=<entropy = 0.994<br/>samples = 11<br/>value = [6, 5]<br/>class = C>, fillcolor="#e581392a"] ;
728 -> 730 ;
731 [label=<tenure &le; 0.326<br/>entropy = 0.935<br/>samples = 188<br/>value = [122, 66]<br/>class = C>, fillcolor="#e5813975"] ;
723 -> 731 ;
732 [label=<tenure &le; 0.285<br/>entropy = 0.895<br/>samples = 61<br/>value = [42, 19]<br/>class = C>, fillcolor="#e581398c"] ;
731 -> 732 ;
733 [label=<tenure &le; 0.257<br/>entropy = 0.946<br/>samples = 33<br/>value = [21, 12]<br/>class = C>, fillcolor="#e581396d"] ;
732 -> 733 ;
734 [label=<entropy = 0.89<br/>samples = 13<br/>value = [9, 4]<br/>class = C>, fillcolor="#e581398e"] ;
733 -> 734 ;
735 [label=<tenure &le; 0.271<br/>entropy = 0.971<br/>samples = 20<br/>value = [12, 8]<br/>class = C>, fillcolor="#e5813955"] ;
733 -> 735 ;
736 [label=<entropy = 1.0<br/>samples = 8<br/>value = [4, 4]<br/>class = C>, fillcolor="#e5813900"] ;
735 -> 736 ;
737 [label=<entropy = 0.918<br/>samples = 12<br/>value = [8, 4]<br/>class = C>, fillcolor="#e581397f"] ;
735 -> 737 ;
738 [label=<tenure &le; 0.312<br/>entropy = 0.811<br/>samples = 28<br/>value = [21, 7]<br/>class = C>, fillcolor="#e58139aa"] ;
732 -> 738 ;
739 [label=<tenure &le; 0.299<br/>entropy = 0.852<br/>samples = 18<br/>value = [13, 5]<br/>class = C>, fillcolor="#e581399d"] ;
738 -> 739 ;
740 [label=<entropy = 0.722<br/>samples = 5<br/>value = [4, 1]<br/>class = C>, fillcolor="#e58139bf"] ;
739 -> 740 ;
741 [label=<entropy = 0.89<br/>samples = 13<br/>value = [9, 4]<br/>class = C>, fillcolor="#e581398e"] ;
739 -> 741 ;
742 [label=<entropy = 0.722<br/>samples = 10<br/>value = [8, 2]<br/>class = C>, fillcolor="#e58139bf"] ;
738 -> 742 ;
743 [label=<tenure &le; 0.396<br/>entropy = 0.951<br/>samples = 127<br/>value = [80, 47]<br/>class = C>, fillcolor="#e5813969"] ;
731 -> 743 ;
744 [label=<tenure &le; 0.382<br/>entropy = 0.998<br/>samples = 36<br/>value = [19, 17]<br/>class = C>, fillcolor="#e581391b"] ;
743 -> 744 ;
745 [label=<tenure &le; 0.354<br/>entropy = 0.987<br/>samples = 30<br/>value = [17, 13]<br/>class = C>, fillcolor="#e581393c"] ;
744 -> 745 ;
746 [label=<tenure &le; 0.34<br/>entropy = 1.0<br/>samples = 16<br/>value = [8, 8]<br/>class = C>, fillcolor="#e5813900"] ;
745 -> 746 ;
747 [label=<entropy = 0.991<br/>samples = 9<br/>value = [5, 4]<br/>class = C>, fillcolor="#e5813933"] ;
746 -> 747 ;
748 [label=<entropy = 0.985<br/>samples = 7<br/>value = [3, 4]<br/>class = h>, fillcolor="#399de540"] ;
746 -> 748 ;
749 [label=<tenure &le; 0.368<br/>entropy = 0.94<br/>samples = 14<br/>value = [9, 5]<br/>class = C>, fillcolor="#e5813971"] ;
745 -> 749 ;
750 [label=<entropy = 0.722<br/>samples = 5<br/>value = [4, 1]<br/>class = C>, fillcolor="#e58139bf"] ;
749 -> 750 ;
751 [label=<entropy = 0.991<br/>samples = 9<br/>value = [5, 4]<br/>class = C>, fillcolor="#e5813933"] ;
749 -> 751 ;
752 [label=<entropy = 0.918<br/>samples = 6<br/>value = [2, 4]<br/>class = h>, fillcolor="#399de57f"] ;
744 -> 752 ;
753 [label=<tenure &le; 0.465<br/>entropy = 0.915<br/>samples = 91<br/>value = [61, 30]<br/>class = C>, fillcolor="#e5813982"] ;
743 -> 753 ;
754 [label=<tenure &le; 0.438<br/>entropy = 0.872<br/>samples = 41<br/>value = [29, 12]<br/>class = C>, fillcolor="#e5813995"] ;
753 -> 754 ;
755 [label=<tenure &le; 0.41<br/>entropy = 0.845<br/>samples = 22<br/>value = [16, 6]<br/>class = C>, fillcolor="#e581399f"] ;
754 -> 755 ;
756 [label=<entropy = 0.918<br/>samples = 6<br/>value = [4, 2]<br/>class = C>, fillcolor="#e581397f"] ;
755 -> 756 ;
757 [label=<tenure &le; 0.424<br/>entropy = 0.811<br/>samples = 16<br/>value = [12, 4]<br/>class = C>, fillcolor="#e58139aa"] ;
755 -> 757 ;
758 [label=<entropy = 0.764<br/>samples = 9<br/>value = [7, 2]<br/>class = C>, fillcolor="#e58139b6"] ;
757 -> 758 ;
759 [label=<entropy = 0.863<br/>samples = 7<br/>value = [5, 2]<br/>class = C>, fillcolor="#e5813999"] ;
757 -> 759 ;
760 [label=<tenure &le; 0.451<br/>entropy = 0.9<br/>samples = 19<br/>value = [13, 6]<br/>class = C>, fillcolor="#e5813989"] ;
754 -> 760 ;
761 [label=<entropy = 0.946<br/>samples = 11<br/>value = [7, 4]<br/>class = C>, fillcolor="#e581396d"] ;
760 -> 761 ;
762 [label=<entropy = 0.811<br/>samples = 8<br/>value = [6, 2]<br/>class = C>, fillcolor="#e58139aa"] ;
760 -> 762 ;
763 [label=<tenure &le; 0.493<br/>entropy = 0.943<br/>samples = 50<br/>value = [32, 18]<br/>class = C>, fillcolor="#e5813970"] ;
753 -> 763 ;
